</s> 0.001701 0.002050 0.000891 0.001214 0.002004 0.000342 0.001856 0.002271 0.001959 -0.001614 -0.000782 0.002103 -0.000711 -0.000124 0.001599 0.000390 -0.000617 -0.002397 -0.001210 0.001505 0.001459 -0.001735 -0.002029 -0.000961 0.001868 -0.001544 -0.001749 0.001299 -0.001696 -0.000997 -0.000292 -0.002351 -0.000585 0.002134 0.001393 0.001875 -0.000637 -0.000048 -0.001323 0.001349 -0.001725 -0.000219 -0.000794 -0.001262 0.001571 -0.001318 -0.001350 -0.002051 0.000264 0.001524 -0.000652 -0.000335 -0.002459 0.002166 -0.001433 0.000446 0.002357 -0.002329 0.000119 -0.001517 0.002187 0.001904 -0.001897 0.001523 -0.000100 -0.001382 -0.001001 -0.002079 0.002310 -0.001701 -0.001935 0.000971 -0.002460 0.001697 0.001605 0.001933 0.002026 0.000340 -0.000306 -0.001093 0.001126 0.001467 0.002443 0.000517 -0.001359 -0.001529 -0.001135 0.001608 -0.001677 -0.001136 0.002008 -0.001580 -0.000067 0.002279 -0.000613 -0.002127 -0.002223 -0.002067 -0.001488 -0.002229 0.000669 0.001111 0.000979 0.000149 -0.000605 0.001218 -0.002066 0.002274 0.001285 0.000354 -0.000543 0.001128 0.000008 -0.001716 0.001530 0.001896 0.000242 -0.001490 -0.000220 -0.001560 -0.000768 0.000900 0.000237 -0.001487 0.000607 -0.002176 0.001538 0.001734 -0.001796 0.001478 0.001076 0.001399 0.000887 -0.001429 0.001963 -0.000765 0.001826 0.002476 0.002425 0.000212 -0.000211 0.002155 -0.000933 -0.000643 -0.000016 -0.001856 0.002180 -0.002343 0.001214 0.000980 -0.001728 -0.001255 -0.000149 -0.001378 0.001807 0.001517 0.001034 0.002318 0.000384 -0.001895 -0.002278 -0.000185 -0.002499 -0.000387 -0.001646 0.002168 0.002348 -0.000203 -0.000757 -0.001127 0.001950 0.001779 0.000284 0.000668 0.000910 0.001969 0.001540 0.001859 0.000425 -0.001702 0.001475 -0.001416 0.000080 -0.001575 0.000502 -0.001739 -0.001244 -0.001179 0.000790 -0.000959 0.000743 -0.002445 -0.000293 0.001014 -0.000619 0.000028 0.001058 0.002230 0.001036 -0.001944 
the 0.053826 -0.176276 0.099365 -0.049133 0.021187 -0.008230 -0.113756 -0.095114 -0.056807 0.055530 -0.014262 -0.093214 0.059495 -0.049235 -0.040011 0.050247 0.007517 -0.154556 0.018949 0.078781 -0.112987 -0.038954 0.081557 -0.014976 0.029104 0.150577 -0.028782 -0.025953 -0.000610 0.057754 0.139605 -0.137847 -0.000938 0.080222 0.069961 -0.033301 0.041647 0.065261 -0.154622 -0.096319 0.056123 0.026215 0.008645 0.008013 0.042134 -0.057220 -0.156485 -0.117510 0.084051 -0.211693 0.011742 -0.044410 -0.010794 -0.001246 -0.023025 0.087218 0.178396 0.156146 -0.014158 0.021387 0.088291 -0.007363 -0.022337 0.046680 -0.033387 -0.100345 -0.003790 0.027761 -0.022481 -0.032924 0.028705 -0.125183 0.030410 0.052734 0.031685 -0.083647 0.052722 0.044196 -0.028366 -0.121158 0.041515 -0.152831 0.069223 0.008258 -0.032887 0.018672 0.054488 -0.025618 0.020378 -0.039580 -0.061217 -0.095578 -0.004264 -0.143794 0.166607 -0.019697 0.015838 0.006964 0.127003 -0.099998 0.061202 0.025111 -0.164899 0.005163 0.030746 -0.118568 0.029599 0.149827 -0.017624 0.092416 -0.058584 -0.001843 -0.033285 0.050255 0.023471 -0.034549 -0.139159 0.049707 0.013464 -0.126469 0.126277 0.048509 -0.050054 -0.150451 0.096059 -0.017265 -0.115127 -0.084929 0.057146 -0.043411 0.025851 -0.135165 -0.022560 0.049134 -0.054876 0.188663 0.035386 0.008444 -0.121894 0.013688 -0.003872 0.166852 0.031315 0.170061 -0.034715 -0.014854 -0.025636 -0.272696 -0.073340 0.060282 0.126827 -0.032630 0.099395 0.059411 0.071674 -0.029813 0.301423 0.060469 0.131371 -0.008875 -0.091505 -0.044875 0.076489 0.043989 -0.081434 0.016080 -0.143859 0.039918 -0.097317 -0.097229 -0.018798 -0.121481 0.023491 -0.092189 0.110073 -0.064938 0.031184 -0.228098 0.170327 0.085383 -0.006649 -0.049783 -0.161264 0.029713 0.223488 0.009204 0.161155 0.057253 0.012675 -0.014568 0.001310 -0.126400 -0.054883 0.130255 -0.015792 -0.073996 0.046151 0.260303 -0.099558 -0.056976 
, 0.116655 -0.016495 0.029630 0.092050 -0.078061 0.144612 -0.010060 0.169730 -0.099059 -0.006823 0.048019 -0.100464 -0.105018 -0.064288 -0.043905 0.010076 -0.171484 -0.076102 0.095982 0.039227 -0.010651 0.061713 -0.086619 -0.224760 0.076669 0.065921 0.029364 0.007425 0.110162 -0.019432 0.014395 -0.042272 -0.016864 -0.059034 0.130379 0.013989 -0.078842 0.145039 -0.124006 -0.025356 0.034435 0.018956 -0.109297 -0.038878 -0.056422 0.030424 -0.053695 -0.113723 0.030928 -0.076525 0.037065 0.065036 0.029537 0.216548 0.051153 0.043141 -0.031748 0.057504 -0.018005 -0.103691 0.026901 -0.229228 0.097776 0.074515 0.032457 -0.054717 0.051492 -0.049917 -0.039703 0.154636 0.197388 -0.030840 0.028825 0.058808 0.044053 -0.015378 0.153487 -0.110775 0.025802 0.090274 0.051861 -0.238107 -0.079922 -0.147500 -0.115571 -0.109854 -0.007271 -0.001531 -0.040193 0.007948 -0.099843 -0.013469 -0.061913 -0.168916 0.131788 -0.026292 -0.130201 -0.026370 0.115996 0.026672 -0.022029 0.047826 -0.082732 -0.010616 -0.069321 0.003610 0.010207 -0.017354 -0.019776 -0.006215 -0.123961 0.072256 0.057300 -0.007268 -0.006731 0.052943 0.032165 -0.079136 0.083441 -0.080106 0.004170 -0.027212 -0.086812 -0.164781 0.054154 0.013897 -0.135494 0.048710 -0.083602 0.024908 -0.082245 -0.065169 -0.000131 -0.108071 -0.045497 0.222404 -0.016757 0.007040 0.192758 -0.021506 -0.141923 0.093764 -0.104442 0.127239 0.038581 -0.021546 0.136103 -0.182202 0.180366 0.047507 0.012270 -0.167912 0.199669 0.158745 0.007766 0.040898 -0.030158 -0.048412 0.076947 -0.027356 0.088873 -0.024321 -0.013163 0.206503 -0.111162 -0.039237 -0.123330 0.091098 0.067354 -0.027665 -0.114159 -0.132305 0.119098 -0.008223 -0.118051 -0.164420 -0.058648 -0.094075 0.014855 -0.025823 -0.042491 -0.139877 -0.089815 -0.079128 0.227948 -0.057806 0.001191 -0.078390 -0.009545 0.155969 -0.139870 -0.000074 -0.104029 0.193023 -0.051656 0.074778 -0.011675 0.069889 0.037545 -0.153111 
. 0.236210 -0.091600 0.143624 -0.081086 -0.030944 0.011014 -0.170982 -0.011161 -0.010470 -0.018147 0.072311 -0.060134 0.127979 -0.076177 -0.085343 0.064512 -0.149908 0.067503 0.045856 0.166403 -0.003816 -0.046213 0.049954 -0.257959 0.078494 0.095990 0.015513 -0.029501 0.041881 0.028280 0.149870 -0.072853 -0.161121 0.043300 0.163040 -0.030686 0.037229 0.157082 -0.067715 -0.039489 0.165091 0.065068 0.034567 0.141194 0.011490 0.184432 -0.190504 -0.089829 0.103103 -0.036240 -0.024779 -0.060030 0.023188 0.278012 0.093141 -0.012159 0.012190 -0.134762 -0.063714 -0.052140 -0.057286 -0.020655 0.047249 -0.065239 0.102722 -0.051939 0.117583 -0.032061 0.021198 -0.031692 -0.086515 -0.115864 -0.104111 0.051287 0.040968 -0.278031 0.051539 -0.004923 -0.231592 -0.088677 -0.017253 -0.172226 0.043398 0.029480 -0.156898 -0.034535 -0.050102 -0.196976 -0.073156 -0.068209 -0.125790 -0.147164 0.052717 -0.070480 0.091997 -0.135162 -0.184192 -0.226327 0.084940 0.011975 0.014165 -0.098262 -0.055356 -0.034974 -0.063259 0.081975 -0.066083 0.111233 0.070346 0.024297 -0.036215 -0.051037 0.138579 0.127500 -0.093919 -0.030112 0.009110 -0.199923 0.020080 -0.050615 -0.107297 0.081228 0.029211 -0.072533 -0.017050 -0.071256 -0.331823 -0.089485 -0.039247 0.051689 0.008959 -0.098425 0.052874 -0.008631 0.003751 0.158205 -0.063481 0.318878 -0.047947 0.214483 -0.182331 0.084174 0.009294 0.174913 -0.071306 -0.036016 0.152023 -0.065093 -0.065689 -0.004234 0.163160 -0.201235 0.126395 0.133224 0.049377 0.169820 -0.008427 -0.113607 -0.097806 -0.074274 -0.024930 -0.002033 0.095246 0.158342 0.110609 0.023776 -0.138464 0.058450 0.005190 -0.311843 -0.051519 -0.179376 0.221577 -0.067318 -0.105654 -0.078482 0.066342 -0.086014 0.084252 -0.069487 -0.035245 0.003923 -0.189358 -0.233601 0.126394 -0.059152 0.078964 0.011708 0.003818 -0.022507 -0.143158 -0.130894 0.001796 0.244161 -0.025332 -0.146654 -0.058479 -0.006001 -0.029359 -0.066404 
of 0.009356 -0.141998 0.129608 -0.045005 0.048822 0.016419 -0.031780 -0.100220 -0.070161 0.141813 0.015827 -0.115294 0.129499 0.039242 0.057412 -0.083481 0.031950 -0.081944 -0.081928 0.109593 -0.042346 -0.067022 0.100866 -0.098397 0.059723 0.143252 0.057395 -0.095505 0.069241 0.056345 0.038551 -0.097227 -0.059760 0.105467 0.056725 -0.014940 0.008383 0.004232 -0.013705 -0.011005 -0.042396 0.054298 0.020577 -0.152851 0.109447 0.063986 -0.223229 -0.118073 0.020964 -0.095102 0.019801 -0.022085 0.028669 -0.002721 -0.122344 0.062382 0.140975 0.080934 -0.024361 -0.092887 0.045353 0.031108 -0.137430 -0.019164 0.073090 -0.150429 0.087762 0.064222 -0.022938 -0.064265 0.094826 -0.053931 -0.023808 -0.033702 0.001755 0.145725 0.025196 -0.001508 -0.054701 0.008669 0.039536 -0.125761 -0.035345 0.068591 -0.081438 0.045315 -0.045968 0.012398 0.052205 -0.020803 0.065975 -0.259713 -0.101209 -0.030574 0.202789 -0.006203 0.003468 0.021716 0.106691 -0.135295 0.097313 0.083390 -0.128095 -0.092220 -0.044715 -0.083087 0.050326 0.189427 -0.085687 0.046023 -0.049156 -0.050752 -0.008711 -0.065978 -0.020863 -0.048144 -0.135731 0.105209 -0.003803 -0.004847 0.216908 -0.013588 -0.061482 -0.186123 -0.019903 -0.006578 0.118371 -0.067872 0.011004 -0.060507 -0.080661 0.017367 -0.020733 0.068124 -0.062477 0.024971 0.105384 -0.040598 0.062484 0.137191 -0.036152 0.131315 0.032055 0.215359 -0.149279 -0.024297 -0.001267 -0.231441 0.064458 0.033380 0.068789 -0.100870 0.154265 -0.007580 -0.016662 -0.093784 0.118736 -0.047762 -0.046397 -0.013419 -0.109183 -0.025374 0.233883 0.082305 -0.083577 -0.091637 -0.074305 0.017732 -0.081173 -0.012210 -0.022763 -0.080845 0.008216 -0.127967 -0.087792 0.025527 -0.071057 -0.228633 0.030291 0.018352 0.041233 -0.150878 -0.146160 0.091294 0.112948 -0.006955 0.086075 -0.002322 -0.046246 -0.119312 -0.077074 -0.117433 -0.104676 0.206951 0.009847 -0.152036 -0.033546 0.133764 -0.088730 -0.135633 
and 0.115095 -0.081107 0.089955 -0.007342 -0.001320 0.025185 -0.060832 -0.039482 -0.108394 0.053257 0.094843 -0.046068 0.102640 0.025273 -0.025129 0.036559 -0.095667 -0.102844 0.040523 0.049129 -0.014348 -0.012972 0.004100 -0.149813 0.067694 0.066312 -0.026632 -0.004637 0.013054 0.017663 0.157480 -0.007361 -0.024891 -0.055363 0.057361 0.068535 -0.016694 0.077959 -0.064219 -0.023955 0.012445 0.037437 0.028013 0.037888 -0.047135 0.088645 -0.177850 -0.169781 -0.048761 -0.125340 -0.043835 -0.065664 -0.005874 0.139633 -0.000452 0.037613 0.024372 -0.017266 -0.057407 0.014155 0.008184 0.006124 0.046615 0.018394 0.057466 -0.003530 0.056804 -0.087051 0.011668 -0.021010 0.007798 -0.037329 -0.062829 0.039315 0.053215 -0.062010 0.023432 0.027978 -0.103248 -0.021673 0.054729 -0.235438 0.069071 0.071081 -0.050981 0.076095 -0.054368 -0.072260 -0.037796 -0.013867 -0.073231 -0.134127 0.028559 -0.044218 0.060696 -0.135276 -0.047075 -0.124132 0.175868 0.044508 0.025662 0.045528 -0.074423 -0.004929 -0.053904 -0.044511 0.009669 0.074600 -0.030514 -0.066567 -0.096846 0.024891 0.067519 -0.015187 -0.080483 -0.052783 -0.012396 -0.057395 0.097251 -0.083844 0.123413 -0.080801 -0.046336 -0.113104 -0.038079 -0.079116 -0.224671 -0.096512 0.051072 0.018500 0.022317 -0.062924 -0.128970 0.032838 -0.016414 0.118166 0.042585 0.094550 0.125595 0.109097 -0.148910 0.037377 0.006696 0.122893 -0.001627 0.087082 -0.002949 -0.069837 0.007095 0.000254 0.108780 -0.164526 0.200471 0.175118 -0.032800 0.085754 0.035921 -0.011783 -0.041837 -0.048595 -0.062228 0.074759 0.081792 0.198783 -0.055276 0.078302 -0.103057 0.086933 0.063188 -0.037554 -0.067902 -0.063247 0.173682 -0.135640 -0.180214 -0.012790 -0.001534 -0.106061 0.063777 -0.032802 -0.061098 -0.064954 -0.037567 -0.150869 0.134668 -0.026321 0.065465 0.049984 -0.006395 -0.022738 -0.139115 -0.059936 -0.059249 0.179242 -0.010562 0.011431 -0.121511 0.065179 0.059308 -0.099701 
in 0.190115 -0.028251 0.271463 -0.082398 0.091594 0.006943 -0.002817 -0.061084 -0.029802 0.009587 0.163236 -0.107977 0.030205 0.012549 0.109582 -0.087693 -0.019225 -0.058284 -0.130541 0.278288 -0.003667 -0.108476 -0.008913 -0.124711 -0.079534 0.032972 -0.069537 -0.044883 0.020668 -0.052980 -0.016601 -0.028868 -0.006677 0.159693 0.030228 -0.073680 0.092228 0.106645 0.045121 -0.056920 0.025205 0.013901 0.061112 0.097705 -0.034876 -0.089219 -0.237625 -0.157893 -0.018042 -0.152996 0.005898 0.033017 0.000616 0.179694 -0.082007 0.033818 0.076340 0.032615 0.008145 -0.042313 -0.008696 -0.079476 -0.128357 0.054657 0.105827 0.159453 0.176054 0.039108 0.096520 0.037385 0.108612 -0.047344 -0.017841 0.078913 0.148932 -0.127525 0.157881 -0.041613 -0.109454 0.075806 0.162114 -0.256836 0.034832 0.154238 0.018060 0.067713 0.029341 0.045506 -0.066357 -0.077759 -0.021775 -0.126252 -0.222803 -0.068965 0.010019 0.111314 -0.005672 -0.041150 0.009755 -0.121934 0.045895 0.063439 -0.077941 -0.071254 -0.101325 -0.033433 -0.103941 0.198782 0.086238 0.077939 0.003158 -0.004569 0.031903 -0.140407 0.035964 -0.097983 -0.067090 -0.087079 -0.024451 -0.153931 -0.036814 0.023455 0.013891 -0.051830 -0.056229 0.007039 -0.028987 -0.029224 -0.034380 -0.044736 0.100069 0.108800 -0.129788 0.082455 0.016638 0.128156 -0.055888 0.129664 0.005406 -0.093440 -0.171673 0.128624 -0.075782 0.144258 -0.167406 -0.096932 0.042557 -0.280830 0.038875 -0.044548 0.022978 -0.150012 0.029551 0.103629 0.038727 -0.042093 0.020500 -0.033275 0.140329 -0.119402 -0.125973 0.001187 0.203281 0.133957 0.149915 0.017098 -0.105665 -0.010043 0.038489 -0.171958 0.016897 -0.091275 0.159514 -0.140025 -0.049389 0.019880 -0.197643 -0.168092 -0.026312 0.089877 -0.106369 0.049220 -0.242715 0.033886 0.002123 0.034502 -0.041069 0.079136 -0.115118 -0.054012 -0.109014 -0.064698 -0.122229 0.096813 -0.018902 -0.005794 0.021507 0.149621 -0.057672 -0.132695 
) 0.084298 -0.000130 0.079623 0.013952 0.035287 0.003695 0.040054 0.161266 -0.026307 0.038880 0.004503 -0.231435 0.036110 0.121556 -0.022491 0.078960 -0.056174 0.120756 0.072853 -0.040173 0.079112 -0.012139 -0.013804 -0.188023 0.077943 0.010003 0.003438 -0.061049 0.203062 0.046190 0.178433 -0.001900 -0.027779 0.012917 0.102049 -0.047340 -0.071273 0.183435 -0.072866 0.083042 0.143124 0.052876 0.068195 0.052710 -0.053670 0.179866 0.018563 -0.001850 0.007363 0.065255 -0.175642 0.069547 0.077507 0.269955 0.104323 -0.106444 -0.088130 -0.095949 -0.045335 -0.033060 -0.084074 0.027248 -0.032032 -0.065222 -0.109770 0.002519 0.085045 -0.030925 -0.057826 0.060575 -0.040649 -0.122457 0.009383 -0.006089 0.218223 0.089865 0.032875 -0.138794 -0.187109 0.083645 -0.052214 -0.146688 -0.021555 -0.048390 -0.107430 -0.048513 -0.089724 0.060795 0.025289 0.071230 -0.056336 -0.012853 -0.074881 -0.214246 0.142508 0.090854 -0.196797 -0.238019 0.131522 0.061501 -0.005230 0.128664 0.111554 -0.036963 -0.152174 0.066745 -0.076680 -0.019439 0.166395 -0.013985 -0.165407 0.074989 0.071344 0.112573 -0.199136 0.046472 0.014608 -0.180778 0.007152 0.092741 0.006914 0.064335 0.090765 -0.070103 -0.091696 -0.115704 -0.086988 -0.080836 -0.134949 0.135884 -0.049812 -0.167355 -0.009318 0.015575 -0.019351 0.156010 0.119896 0.104984 0.199615 0.094506 -0.130433 0.203937 0.031306 0.097927 0.131984 -0.109956 0.172686 -0.152306 0.105724 0.145046 0.037702 -0.164998 0.186988 0.197079 0.022862 0.041066 -0.128199 0.029997 -0.075544 0.010078 0.172314 0.052336 0.131444 0.101442 0.027736 0.077233 -0.083424 0.186119 0.005559 -0.046205 -0.152985 -0.070783 -0.002624 0.040595 -0.071643 -0.064989 -0.073583 -0.026979 -0.086371 -0.144331 -0.082963 0.096056 -0.229832 -0.120371 0.126833 0.050174 0.077161 -0.285535 0.055690 0.126280 -0.188752 -0.139156 0.073837 0.180325 -0.107281 0.061587 -0.034887 0.002954 -0.151127 -0.023240 
( 0.155725 -0.055628 0.080798 0.016040 0.051545 -0.016031 0.034119 0.066450 -0.005457 0.022943 0.081581 -0.203544 0.032355 0.120266 0.044473 0.057060 -0.122782 0.036154 0.121175 -0.016397 0.005159 0.033745 0.003380 -0.212783 0.007200 0.037215 0.063497 -0.032211 0.176474 0.082395 0.182905 -0.078792 -0.065206 0.028980 0.113116 -0.061365 -0.088829 0.135852 -0.099868 0.110075 0.110584 0.004426 0.002291 0.121185 -0.118756 0.194817 -0.044937 -0.042389 0.043833 0.047176 -0.100095 0.034772 0.024145 0.257440 0.103564 -0.084037 -0.114034 0.053817 -0.125421 -0.047500 -0.001490 0.001289 0.012821 -0.027883 -0.150273 -0.048561 0.036182 -0.031169 -0.025487 0.055036 -0.005519 -0.051966 0.048912 -0.040972 0.112811 -0.017709 -0.018828 -0.117315 -0.222083 0.048123 -0.020151 -0.148163 0.054249 -0.095477 -0.067560 -0.058031 -0.153294 0.105675 0.001263 0.063145 -0.090689 0.004236 0.037687 -0.128922 0.089835 0.050800 -0.227782 -0.228338 0.132151 0.016764 0.015245 0.139052 0.153732 -0.058347 -0.111648 0.110425 -0.033073 0.074263 0.125728 0.017114 -0.202870 0.038976 0.161754 0.024243 -0.146122 0.011353 0.028663 -0.113651 -0.022382 0.006173 0.069399 0.009310 0.080922 -0.093978 -0.008392 -0.178290 -0.122171 -0.053202 -0.177337 0.087071 -0.020707 -0.144170 0.011919 -0.037976 0.019849 0.181942 0.049165 0.089074 0.095366 0.060534 -0.078985 0.215513 0.036516 0.166219 0.061827 -0.125103 0.138995 -0.148891 0.024975 0.058875 0.109091 -0.196205 0.149585 0.158658 0.002504 0.074382 -0.067874 -0.000434 -0.040755 0.026286 0.121766 0.052823 0.188288 0.131462 0.125294 0.086343 -0.136606 0.093210 -0.043140 -0.089525 -0.100881 -0.029925 0.071977 -0.018484 -0.052306 -0.042134 0.000125 0.014955 -0.024664 -0.248293 -0.027105 -0.043238 -0.210751 -0.199484 0.154176 0.012504 0.077671 -0.167767 0.101472 0.105708 -0.163233 -0.119125 0.131523 0.177358 -0.040241 0.079462 -0.056386 0.011890 -0.105290 0.000115 
to 0.041885 -0.088997 0.213325 -0.015367 0.006446 0.029624 -0.088034 -0.071303 0.003516 0.108399 -0.018883 -0.068077 0.036451 -0.027786 -0.202792 0.017460 0.041758 -0.113940 -0.211090 0.141669 -0.104820 -0.190412 0.081411 -0.101647 0.208907 0.256266 0.016304 -0.062581 0.101708 0.015332 0.143142 -0.216954 -0.023595 -0.110449 0.207867 0.046220 0.023155 0.087706 0.031795 -0.076902 -0.075563 -0.120446 0.029161 0.184105 0.075784 -0.102971 -0.186182 0.002878 -0.166761 -0.201925 -0.145914 -0.005110 0.050210 -0.128968 0.091915 0.052687 -0.010844 0.002568 0.071474 -0.007683 -0.186938 0.160097 0.063072 0.004557 -0.000299 -0.049002 0.050573 -0.102791 0.067206 -0.009878 0.044202 -0.134594 -0.191299 0.100364 0.238877 -0.065301 0.013180 -0.096146 0.123508 0.042039 0.089027 -0.191416 -0.024809 -0.011636 0.007735 -0.030968 -0.009534 0.030274 0.016442 -0.071160 0.001603 -0.127384 -0.056261 -0.067587 0.156348 -0.050299 0.008646 -0.135545 0.101212 -0.275076 0.017381 -0.085454 -0.076753 0.227669 0.168845 -0.173241 -0.077957 0.039013 -0.059530 -0.021990 -0.081093 0.115165 -0.077920 0.021738 -0.059691 -0.131276 0.007399 -0.201152 0.069966 0.029221 0.135665 -0.032059 -0.240243 -0.199382 0.005914 0.089795 -0.072369 0.024863 0.039972 -0.035873 0.012189 -0.048516 0.165273 0.106636 0.066607 0.032385 -0.005905 0.155190 0.056068 -0.097681 -0.145102 0.265775 0.199208 -0.012752 -0.089955 0.244861 0.240707 -0.213879 0.097161 0.101338 -0.094661 -0.094314 -0.056067 0.035295 0.024142 0.218063 0.046929 0.152305 -0.044320 0.090764 -0.036873 -0.121800 0.130733 0.233129 -0.022659 0.129022 0.000817 -0.295303 0.311260 -0.096911 -0.150786 -0.044075 0.041678 -0.025131 -0.114457 0.219429 0.125074 -0.236036 0.018005 0.103184 -0.089894 0.000474 0.004891 -0.242209 0.094752 -0.105913 0.044807 0.246728 0.166857 -0.101804 -0.042324 0.010633 0.068097 -0.049104 0.055358 -0.072555 0.026138 0.231471 0.009386 -0.152055 
a -0.119735 -0.117061 0.138365 0.031940 -0.001499 0.018906 -0.121371 -0.022017 -0.076790 -0.053176 -0.190148 -0.244685 0.083048 -0.006303 -0.054150 -0.077128 -0.025477 -0.275347 0.057768 0.233491 0.098666 -0.048500 0.091971 0.101209 0.084177 0.073172 -0.001382 -0.099180 0.114578 0.178171 0.083326 -0.211016 0.130877 0.025851 0.181793 0.067275 0.004321 0.191289 -0.087465 -0.141142 0.028996 0.161079 0.078091 0.022477 -0.026161 0.009060 -0.121142 -0.289191 -0.006702 -0.080779 -0.052804 0.026800 0.000248 -0.025050 -0.036931 0.131100 0.011204 0.015350 0.084025 -0.086196 0.137758 -0.274152 0.021805 -0.073871 -0.072851 0.139438 -0.027034 0.038720 0.166235 -0.016947 0.048896 -0.048062 0.077332 -0.041330 0.031403 -0.129286 -0.027976 0.203378 0.055786 -0.078438 -0.089794 -0.142178 -0.059054 0.021699 -0.109002 -0.103864 -0.175362 -0.101418 -0.126483 0.070682 -0.056242 0.053687 -0.001581 0.013326 0.026546 0.158163 0.069668 0.029099 0.189300 -0.100096 0.066183 -0.093274 -0.025230 -0.099551 0.058229 -0.080278 0.089706 0.214143 -0.093251 0.109745 -0.062652 0.007448 0.017143 -0.059182 0.141555 0.041669 0.007857 0.126368 -0.180019 -0.167710 -0.016184 0.036818 0.004369 -0.298592 -0.056085 -0.099852 -0.087696 0.058145 0.056884 0.167873 0.174770 -0.014274 0.063699 -0.076871 -0.105684 0.088578 0.036789 0.034524 -0.077977 -0.041819 0.044941 0.139831 0.056077 -0.040125 -0.268350 -0.083241 0.194771 -0.002329 0.041000 0.125199 0.176321 -0.039532 -0.024881 0.044902 0.098686 -0.191306 0.162445 0.036073 0.085250 0.091737 -0.042445 -0.177813 0.051438 0.067484 0.044639 0.085902 -0.344799 -0.127065 -0.106347 -0.083973 0.001791 -0.109521 -0.079246 0.039836 0.008950 0.059370 0.057659 -0.224640 0.089836 -0.041000 -0.065484 0.077754 0.028674 -0.145387 0.077756 0.000273 0.136532 -0.047207 -0.027197 -0.108073 -0.116073 -0.012562 -0.110594 0.130058 -0.037761 0.055270 0.093517 0.410534 -0.049416 0.171535 
with 0.075933 0.025513 0.138171 -0.119017 0.171957 0.021191 0.209224 -0.037231 0.009619 0.128994 0.196194 -0.042483 0.111753 0.048383 -0.103577 -0.122590 -0.079205 -0.103103 -0.087993 0.239610 0.043348 0.013400 0.161039 -0.194678 0.038648 0.072794 0.105562 -0.056653 0.049646 -0.021044 -0.048325 0.003759 0.014599 -0.153224 0.033141 -0.133972 0.046855 -0.045117 -0.080879 -0.104514 -0.116030 0.138439 0.093013 0.165112 -0.122556 0.077188 -0.136268 -0.304309 -0.046748 -0.198769 -0.029636 -0.088936 0.081668 0.153937 0.010372 0.081097 -0.137316 0.055485 -0.023714 -0.049803 0.003504 0.082139 -0.040462 0.017895 -0.066872 0.118093 0.170771 0.039619 0.005691 -0.128850 0.088870 -0.013810 0.024166 0.115284 -0.087124 0.083751 0.082589 -0.014070 0.021704 -0.167182 -0.144203 -0.163763 0.091129 -0.036185 -0.106747 0.070143 0.021317 -0.193638 0.027507 -0.091205 0.011277 -0.068952 -0.118937 0.139695 0.104526 0.052294 0.061917 -0.121006 -0.067664 -0.178984 0.078661 -0.159734 0.012581 0.070835 0.080781 -0.091430 0.163056 0.006587 -0.118909 0.086930 -0.156255 0.129525 0.192641 -0.024910 -0.061634 -0.042509 0.026069 0.055102 -0.153378 -0.065197 0.001017 0.002206 0.182438 -0.139447 0.162647 -0.053026 -0.133360 -0.055842 -0.337540 0.075453 -0.054636 -0.137119 -0.235112 -0.018191 -0.078744 0.232464 -0.077149 -0.152585 0.039085 -0.052062 -0.030789 0.089610 0.128865 0.186891 -0.069518 -0.056346 0.223578 -0.281934 -0.058721 -0.018659 0.193121 -0.069465 0.056523 0.027167 0.076822 0.024336 -0.113784 0.154111 0.172724 -0.065053 -0.153027 -0.057188 0.126368 0.175640 -0.006902 0.082753 -0.005361 0.040511 0.117705 -0.198861 -0.067410 -0.144625 0.169527 -0.090460 -0.076417 0.141962 -0.065720 -0.342915 -0.081618 -0.040125 -0.094723 0.075289 0.240904 -0.243225 -0.044013 -0.056671 -0.035524 0.038648 0.050913 -0.025580 -0.115013 -0.320705 -0.006194 0.093654 0.219441 -0.008032 -0.113555 0.048671 -0.037733 -0.135563 
for -0.000515 -0.193349 0.199970 -0.046090 0.051565 -0.060023 0.007372 -0.059052 -0.102884 0.095298 0.069959 -0.064332 0.001134 0.120721 0.093783 -0.180007 0.061378 -0.014342 0.125440 0.018250 -0.008018 -0.041815 -0.041571 -0.151230 -0.010818 -0.027507 -0.057914 -0.106116 0.161491 -0.089576 -0.044448 -0.198253 -0.053029 -0.077240 0.059897 0.015728 0.011921 0.058600 -0.171445 -0.002125 0.023603 -0.074719 0.136617 -0.009988 0.084667 0.013072 -0.097578 -0.108691 -0.076778 -0.266575 0.067490 -0.011474 0.093163 0.024428 -0.077139 0.001178 -0.034416 0.020335 -0.111442 -0.120890 -0.007335 -0.165500 -0.110931 0.079251 0.121756 0.009792 0.279251 -0.206362 0.060137 -0.010371 0.280896 -0.120212 -0.305136 0.105997 0.107054 0.044568 0.174193 0.111086 -0.145441 -0.096950 0.085132 -0.285930 0.025374 0.214616 -0.155799 -0.181803 -0.113045 -0.206500 -0.010342 -0.048688 -0.082573 -0.232783 -0.079586 -0.034980 0.147544 -0.067842 -0.066995 -0.014843 -0.005022 0.001399 0.190484 0.059331 -0.040706 -0.005454 -0.028770 -0.064586 0.068418 -0.024044 -0.042994 -0.181154 0.092272 -0.023307 0.062447 0.157742 0.000560 -0.076675 -0.108823 0.007209 -0.053117 0.057606 -0.052401 -0.097644 -0.176575 -0.126652 -0.020831 0.052980 -0.131446 -0.093164 -0.064852 0.209751 -0.002729 -0.001461 0.088451 -0.117681 -0.055234 0.250663 -0.035409 0.129640 0.009056 0.185441 -0.120643 0.172308 -0.114568 0.217497 -0.209399 0.100731 0.115220 -0.047844 0.100958 0.184000 0.104385 -0.400568 0.026624 -0.086006 -0.099508 0.171742 -0.119137 -0.034133 -0.086589 0.081758 -0.158425 -0.056789 0.192895 -0.052353 0.059897 0.009934 0.060372 0.089037 -0.118155 -0.050381 -0.028426 -0.139661 -0.106426 -0.199134 -0.005884 0.043362 -0.000693 -0.330460 0.037530 -0.016697 -0.143840 0.032372 0.037800 -0.038702 0.051071 -0.063839 0.107157 0.062879 0.056132 -0.114585 0.044103 -0.007709 -0.065527 0.251135 -0.145070 -0.133795 0.013258 0.015087 0.089742 -0.060761 
was -0.013030 -0.086729 0.094232 -0.067397 0.031261 0.015729 0.022739 0.027373 -0.129390 -0.224947 0.107614 -0.029620 0.045252 -0.012840 -0.207485 0.111505 0.122972 -0.057731 0.114644 0.031074 0.004164 -0.099368 0.034616 0.012277 -0.088602 -0.027451 0.019963 0.149563 0.135206 0.107713 -0.022355 -0.218285 0.157349 -0.081558 0.090989 -0.063733 0.121460 0.036421 -0.167478 0.047031 0.005977 0.012254 0.001679 -0.016583 -0.106311 -0.159063 -0.165063 -0.171196 0.003487 -0.261988 -0.148868 0.044618 0.072756 -0.102656 0.035450 -0.001535 -0.005616 0.024846 -0.059735 -0.049973 0.107809 -0.026424 0.018649 -0.095044 -0.163238 -0.033975 0.019529 0.183846 -0.196929 -0.085292 -0.055157 -0.091662 -0.002121 0.081458 0.225991 0.027916 0.088304 -0.040626 -0.062738 -0.070754 0.090976 0.108565 0.138816 0.157977 0.140760 0.032944 -0.043829 -0.106726 0.183451 0.036191 -0.045813 0.060918 -0.098716 -0.116641 0.149779 0.039062 0.096986 0.125242 0.072725 -0.189291 0.105180 -0.064459 -0.006078 -0.065446 -0.093746 -0.093330 -0.026709 0.322307 -0.183572 -0.073109 -0.129371 0.018163 0.124273 -0.187922 0.117713 -0.051096 0.096297 0.067837 0.009883 -0.145840 0.206557 0.091231 -0.291944 -0.178864 -0.022922 -0.170488 -0.169238 -0.153760 -0.152843 0.279486 0.031772 -0.371884 -0.079292 0.012401 -0.106120 0.318275 -0.048205 0.304201 -0.202860 0.114119 0.111288 0.140841 -0.039931 0.215687 -0.262475 -0.220764 0.056157 0.052171 0.177715 0.024809 -0.177274 -0.067177 0.061577 0.130364 -0.021809 -0.100130 0.026405 0.010969 0.116509 0.086757 -0.070622 -0.193147 0.281133 0.177167 0.119963 0.265758 -0.028452 -0.051459 -0.000893 -0.151431 0.020658 -0.220848 0.053417 0.019220 -0.208133 0.133559 0.046972 -0.048976 -0.148623 0.051483 -0.087668 -0.036449 -0.110928 -0.003542 -0.127079 0.065869 0.116979 0.251874 0.054438 0.090870 0.206606 -0.466347 -0.095170 0.169572 -0.185594 0.024258 0.150343 0.182739 -0.209086 0.155869 
were -0.020565 0.087554 0.164193 -0.085287 0.100922 -0.147576 0.004372 -0.081460 -0.002815 -0.045551 0.087558 0.181260 -0.019469 0.096846 -0.192608 0.100783 -0.169329 -0.195092 0.057688 0.169476 -0.198659 -0.024132 -0.274349 -0.098777 0.038746 -0.057859 -0.056686 -0.046598 0.050214 -0.027220 -0.075729 -0.158276 0.261055 0.005266 -0.076154 0.139510 0.012839 0.027122 -0.043177 -0.087481 -0.049080 -0.034787 0.025481 -0.026252 -0.228910 -0.055678 -0.204226 -0.169993 -0.238243 -0.252722 -0.006937 0.062239 0.038850 -0.099247 -0.005809 -0.142170 -0.095818 0.164299 0.009894 0.027537 -0.115918 0.046493 0.072184 0.008440 -0.157277 -0.074930 0.029294 0.055493 -0.163251 -0.149388 -0.168075 0.049320 -0.026801 0.043339 0.226713 -0.070345 -0.067987 0.132390 -0.127271 0.008898 0.118643 -0.023094 0.051643 0.147889 0.041017 0.120596 0.011443 -0.112690 0.063933 -0.173016 -0.014203 0.142219 -0.184912 -0.120874 0.040781 -0.040580 0.007129 0.033970 -0.267829 0.029515 0.028784 -0.110727 0.166123 0.024813 -0.143155 -0.119050 0.096433 -0.009655 -0.065494 -0.068297 -0.217927 -0.040553 0.181722 -0.121331 0.077412 -0.157858 0.067081 -0.125208 0.027036 -0.069618 0.248689 -0.031667 -0.210167 -0.140141 -0.122548 0.019730 -0.129090 -0.210175 -0.147069 0.278318 -0.188111 -0.224197 -0.137914 0.219167 0.089073 0.314156 -0.060876 0.191329 -0.063415 0.152469 0.060442 0.053428 0.015874 0.474569 -0.151807 -0.272309 0.207954 -0.006947 -0.025002 -0.157538 0.010931 -0.212430 0.260895 0.037693 -0.012383 0.070861 0.062159 0.085227 0.058807 0.014177 -0.237097 -0.079157 0.131071 0.185660 0.106856 0.073608 -0.168888 0.039351 0.190027 -0.188146 0.164155 -0.051878 0.291956 -0.205718 -0.073978 0.071530 -0.157872 -0.040122 -0.131339 0.019655 -0.175642 -0.094200 0.175308 -0.049486 -0.269964 0.057361 -0.000866 0.103391 0.087674 0.260250 0.199894 -0.297696 -0.045601 0.368253 -0.171819 -0.127493 -0.131368 0.088389 -0.231255 0.059413 
The -0.042052 -0.229073 0.130039 -0.173726 0.019951 -0.162643 -0.201569 -0.205740 -0.089749 0.108547 -0.034548 -0.194576 0.120970 0.065035 0.030955 0.129942 0.245273 -0.029253 0.085562 -0.004858 -0.034117 -0.082219 0.192163 -0.075683 -0.079403 0.054473 -0.030371 -0.139006 0.035010 0.153594 0.058510 0.009310 -0.031117 0.279036 -0.065993 -0.019977 0.012499 -0.026875 -0.035614 -0.051313 -0.094688 -0.042910 -0.072243 0.134512 -0.121574 0.129212 -0.138182 -0.344538 0.067659 -0.142593 -0.042968 -0.119540 0.031993 -0.077005 0.024401 0.065989 0.256222 0.090910 -0.100496 -0.048349 -0.054441 -0.139321 0.036603 -0.197413 -0.095524 0.036821 0.171653 -0.153685 -0.006885 -0.005860 -0.149812 -0.025112 0.004099 0.021091 0.098996 -0.006736 -0.057043 0.160635 -0.103410 -0.207062 -0.120558 -0.212625 0.210575 -0.149090 -0.034575 0.135138 -0.000043 -0.205373 0.024346 -0.051507 0.017703 -0.036001 0.049042 -0.076237 0.229035 0.085191 0.048709 0.102442 0.130855 -0.200434 0.024892 -0.048224 -0.241695 -0.109953 -0.129540 0.047123 -0.106634 0.144986 0.027603 0.104048 0.130537 -0.136014 -0.186581 0.243054 0.030332 -0.031097 -0.281999 0.169797 -0.100136 -0.191839 0.260976 -0.077662 0.053748 -0.070532 0.104097 -0.171823 -0.205491 -0.158557 0.138048 0.250465 0.017116 -0.253173 -0.108634 0.259600 -0.169547 0.139611 -0.082961 0.043546 -0.175989 -0.031248 -0.148128 0.205452 0.087859 0.078996 -0.133345 0.168127 0.037772 -0.171526 -0.273287 -0.061219 0.162483 0.015559 0.085900 -0.028617 0.159915 0.034171 0.254984 0.145872 0.148881 0.000876 -0.096295 0.232591 0.109150 0.049667 -0.069609 0.034231 -0.234833 0.040863 -0.208618 0.006545 0.022954 -0.060665 0.022001 -0.080340 0.125337 0.143051 -0.129929 -0.238885 0.166141 -0.131936 -0.067503 -0.072292 -0.073836 -0.069281 0.290651 0.145834 0.175602 0.103739 0.064414 -0.141485 0.023005 -0.345807 -0.120806 0.209898 -0.142814 0.010670 -0.071010 0.170800 0.026701 -0.124959 
is -0.036944 0.071101 0.035596 -0.091216 0.074919 0.002441 -0.023021 -0.045031 -0.046004 -0.156821 0.049833 -0.190465 0.041329 -0.022966 -0.074078 0.087675 0.010841 -0.146340 0.022784 0.184649 -0.035743 -0.180540 -0.097949 0.053806 0.144056 0.013560 -0.017562 -0.003156 0.045792 0.211139 -0.093969 -0.255617 -0.087028 0.154483 0.165225 0.047397 0.200043 -0.077829 -0.030262 0.036317 0.229842 0.001321 0.009234 -0.244992 0.133610 0.002361 -0.128783 -0.211095 0.161861 -0.306418 0.022881 -0.023615 0.034055 0.082239 -0.074399 0.114931 -0.143268 0.043457 -0.129079 -0.123044 -0.025083 0.043205 -0.107064 0.003465 -0.059284 0.006198 -0.140903 0.282966 -0.169665 0.129988 0.070343 -0.207088 0.104233 0.245788 0.148100 -0.017852 0.226072 -0.021229 0.075000 -0.069284 0.023896 0.080439 0.104236 0.119838 -0.153016 -0.026709 -0.212488 -0.294270 0.012214 0.046819 -0.206083 -0.024638 -0.017007 0.048608 0.235092 0.034645 -0.020855 0.136392 0.228194 -0.164812 0.062332 0.142426 -0.232089 -0.040283 0.048770 -0.169267 0.109196 0.325742 -0.079096 -0.170514 0.006778 0.049901 0.180878 -0.194323 0.278938 0.086926 -0.058132 0.000181 0.019558 -0.175435 0.032352 -0.106491 -0.053677 -0.172642 0.018182 -0.109624 0.013937 0.096312 -0.176901 0.083149 -0.077582 -0.171565 0.173248 -0.034689 -0.165975 0.277181 -0.039313 0.244725 -0.296046 0.203382 0.043822 0.205165 0.058289 0.220667 -0.102474 -0.178662 -0.050477 -0.048193 0.237208 0.089983 -0.359206 -0.117833 -0.011268 -0.041667 -0.070827 -0.107094 0.065730 -0.047098 0.023872 0.074070 0.201881 -0.033439 0.046640 0.223469 0.010105 0.047447 0.032842 -0.012272 0.094748 0.022414 0.073100 -0.089884 -0.061030 -0.026955 -0.094033 0.031569 0.196781 -0.157661 -0.072146 -0.064564 -0.178454 0.051134 -0.135745 -0.106256 0.067869 0.269243 0.185205 0.285433 -0.021726 0.035370 0.059849 -0.268986 -0.074151 0.066168 0.160881 0.061761 0.136126 0.217074 -0.006804 0.117455 
that 0.084569 -0.026948 0.303037 -0.110030 0.175876 0.037610 0.031369 -0.224012 0.179289 0.013547 0.019575 -0.108866 -0.083165 -0.112050 0.034563 -0.150492 0.028716 -0.105486 -0.209587 0.121624 -0.043922 -0.038918 0.109799 -0.190785 0.039973 -0.016586 0.171676 -0.192839 0.160931 0.119727 -0.011890 -0.101589 -0.163643 -0.200411 0.236714 0.002121 0.063394 -0.030287 -0.227076 -0.210800 -0.004060 -0.025232 0.181254 0.035077 0.060466 -0.064537 -0.157237 -0.208097 0.003645 -0.311682 0.049040 -0.055083 0.007069 0.146905 -0.016466 0.082505 0.046954 0.184523 -0.086240 -0.218471 -0.079500 -0.042956 -0.112688 0.044774 -0.074252 0.006747 -0.047238 0.053908 0.096861 0.068469 -0.200737 -0.107356 -0.098962 -0.040109 -0.045183 -0.071884 0.039456 0.066121 0.068664 0.092283 -0.005148 -0.104193 -0.050711 0.117137 -0.151038 0.042775 -0.194833 -0.081501 0.081744 -0.063282 -0.065106 -0.206029 -0.100205 -0.148511 0.112636 0.100616 -0.039613 0.124545 0.054505 -0.040889 -0.015183 -0.018227 -0.051497 0.195624 0.185465 -0.148330 -0.019828 0.231331 0.161336 -0.010198 -0.045753 -0.058571 0.113335 0.083479 0.066626 -0.093676 -0.125457 0.218813 0.080388 0.035922 0.115692 -0.065257 -0.054603 -0.086493 0.049100 0.179811 0.004512 0.052143 0.094297 0.060947 -0.006024 -0.076654 0.014444 -0.062062 0.106117 0.094505 -0.160758 -0.035568 -0.161506 0.007466 -0.131247 0.101189 -0.085154 0.088907 -0.167406 0.129513 0.170959 -0.051075 0.155616 -0.013016 -0.040912 0.099477 0.127129 0.098522 -0.001371 0.150807 0.168966 -0.120924 -0.073887 -0.126661 0.395452 0.065323 0.032651 0.092293 -0.140070 0.067183 -0.228401 -0.039154 0.144900 -0.039130 -0.060764 0.189877 -0.152753 -0.255736 0.025845 -0.133952 -0.011243 -0.314935 0.132295 -0.063941 -0.204630 0.110364 0.042830 -0.027709 0.255402 0.189582 -0.137507 0.106547 -0.117483 -0.216767 -0.028298 -0.050215 -0.095946 0.130896 -0.015346 0.224989 -0.033071 0.479725 -0.076765 -0.142598 
by 0.129168 0.089351 0.179742 -0.175681 0.050802 0.142759 0.079516 -0.139023 -0.015725 -0.133251 -0.080968 -0.128830 0.060012 -0.045299 0.070308 0.092476 0.044480 -0.098781 0.084081 0.126157 0.013697 -0.133565 0.074407 -0.208171 -0.117361 0.029106 0.133449 0.103343 -0.080504 -0.126605 -0.060764 -0.179175 0.078608 -0.058737 0.055885 -0.143142 -0.015131 -0.013725 -0.257271 0.168580 0.101426 0.172800 -0.067380 -0.159459 -0.147947 0.236275 -0.045902 -0.156716 -0.117256 -0.109569 0.024847 0.213357 -0.034178 0.109282 0.032965 0.021976 -0.021836 0.139409 -0.045997 0.008402 -0.095546 0.020480 -0.107093 -0.222535 -0.115139 0.016162 0.093063 -0.016984 -0.140206 -0.030261 -0.000419 -0.260046 0.060838 -0.038200 0.089117 -0.116567 0.186019 -0.068701 -0.159559 0.055624 -0.137364 -0.012672 0.102781 0.111734 -0.018257 0.284301 0.064240 -0.364360 0.169077 -0.003029 -0.086403 -0.153211 -0.131375 0.105921 0.132610 0.024173 0.009197 -0.109020 0.292089 -0.126411 -0.091320 -0.181050 0.038409 0.065253 -0.191868 -0.042214 -0.115219 -0.051346 0.105083 -0.102193 -0.058674 0.234915 -0.111286 0.072982 0.150405 -0.176845 0.022164 0.086343 -0.203452 -0.045483 0.034820 -0.198804 -0.016972 0.037626 0.038564 0.001919 -0.302539 -0.192299 -0.059266 0.056823 -0.286220 -0.026214 -0.034507 0.063335 0.072243 0.097967 0.063513 -0.019146 -0.041244 -0.034167 -0.073832 -0.015620 -0.021355 0.011083 -0.256095 0.058645 0.022002 0.060640 0.063228 0.058529 0.156498 -0.014619 0.100025 0.023224 0.067358 0.015926 -0.135322 -0.110538 0.012446 -0.066586 -0.000605 -0.132851 0.253835 -0.022561 0.102719 0.053452 -0.083305 0.006003 -0.084730 0.114195 0.023953 -0.246721 0.042115 -0.159471 -0.014458 -0.106074 -0.065885 -0.139920 0.133522 0.098896 0.037824 -0.105197 0.128851 0.082606 0.284484 -0.098942 -0.078057 0.089959 0.176670 0.024199 -0.094880 -0.308872 -0.094007 0.432035 0.126087 0.010249 0.048709 0.194581 -0.036990 0.048996 
as 0.107983 -0.104323 0.166640 -0.147412 -0.088278 0.064339 -0.117449 -0.129086 0.115148 -0.061725 0.222995 -0.068312 0.045870 0.016684 -0.086279 0.012055 -0.079095 -0.084002 -0.049785 0.112098 0.119504 -0.010396 0.211622 -0.258475 -0.020757 0.021401 0.157169 -0.092774 0.079308 0.099657 -0.071036 -0.199387 -0.038208 -0.084440 -0.146228 0.158393 -0.096776 0.231133 -0.210970 -0.142872 -0.041867 0.181874 -0.062826 -0.046741 0.025381 0.132760 -0.127867 -0.084212 -0.048963 -0.193927 -0.056562 0.015519 -0.103528 -0.033538 0.041382 -0.046850 -0.076801 0.204647 -0.051507 -0.119782 -0.069109 -0.215257 0.180081 -0.137926 0.090054 0.105217 -0.019033 0.047959 0.211979 -0.095758 0.065469 -0.090763 0.006409 0.022469 -0.116424 -0.207233 0.118987 0.019574 -0.012082 -0.005832 0.017691 0.016223 -0.028694 -0.034669 -0.190249 -0.040870 0.128844 -0.094329 0.073356 -0.202826 -0.113805 -0.105347 -0.041506 -0.006952 0.296662 -0.019494 -0.225057 -0.102148 0.024846 -0.038800 -0.204074 0.349739 0.015795 0.125427 0.020900 -0.134744 0.061026 0.158298 0.065357 -0.099433 0.093115 -0.011263 0.029113 -0.008984 0.164147 -0.113443 -0.158448 -0.115527 -0.071493 0.003484 -0.268837 0.068827 0.016890 -0.126453 0.034989 -0.007423 -0.327838 0.058559 -0.123392 0.023760 0.037456 0.139862 -0.032957 0.118966 -0.219126 -0.026301 -0.187445 0.294447 -0.005769 0.178321 -0.109026 -0.032594 0.102324 -0.054426 0.013276 -0.039535 -0.166372 0.033926 0.109478 0.283595 0.093873 0.035864 0.263005 -0.159157 -0.053736 -0.073438 -0.200669 -0.150533 0.038411 0.125746 -0.003280 -0.034894 0.078881 0.134671 0.058476 0.096603 -0.482989 -0.084380 0.002006 0.071761 -0.078008 0.009718 0.240262 -0.237909 -0.136986 0.075610 -0.316760 -0.098546 0.106150 0.060832 -0.168048 -0.032478 -0.202859 -0.254539 -0.021420 0.068177 0.075881 0.189913 0.068616 -0.032149 0.109296 -0.270202 -0.005717 0.148983 -0.063722 -0.020487 -0.128851 0.294540 0.244031 0.043082 
on 0.079902 -0.129768 0.439583 -0.122847 0.130747 -0.038327 0.076287 -0.046772 0.017469 0.075209 0.283969 0.042620 0.002728 0.098328 0.043098 -0.007012 0.089490 -0.134687 0.136749 0.171513 0.044808 -0.015529 0.096471 -0.411514 -0.063926 -0.113094 0.008090 -0.116020 0.022262 0.083736 0.066369 -0.302609 -0.072713 0.011816 -0.144359 -0.074364 0.043354 0.078484 -0.232602 -0.285050 -0.017336 0.042691 0.105205 -0.151869 -0.085267 0.067316 0.005917 -0.386240 -0.087081 -0.158541 0.118962 0.102974 -0.057518 -0.026056 -0.001120 0.211113 -0.077403 0.044958 0.064354 0.161949 0.090560 0.021979 0.099469 -0.084835 0.023907 -0.069459 -0.103684 -0.037331 -0.010851 -0.056566 -0.092676 -0.086998 0.227730 0.173879 0.100711 -0.081910 -0.057009 0.084390 -0.249974 0.005841 0.040062 -0.105645 -0.021543 -0.103131 -0.023127 0.051722 -0.058255 -0.114504 -0.052768 0.096572 0.066940 -0.104771 -0.151683 -0.245165 -0.053346 -0.180172 -0.233873 0.111713 0.302434 -0.252170 0.059345 0.037933 -0.077288 -0.199805 0.061724 -0.284890 0.082032 0.078687 0.095857 0.050966 -0.085857 -0.220732 -0.223935 -0.140751 0.043301 -0.084188 -0.003766 0.172126 -0.170385 0.104894 0.091001 0.194366 -0.091283 -0.244434 -0.145583 0.127407 -0.055158 -0.139253 -0.034305 0.027402 -0.020403 -0.286316 0.192390 0.256248 -0.055474 0.265356 0.049556 0.234763 0.235887 0.007162 -0.057186 0.174467 -0.100780 0.292598 0.023202 0.222265 -0.050659 -0.220366 0.087085 -0.084108 0.374491 -0.183452 0.043811 -0.017115 0.237671 0.006922 0.203333 0.059485 -0.012027 -0.136454 -0.060376 0.035100 0.060108 -0.002335 0.077311 -0.009585 0.009487 0.040028 -0.115478 -0.082426 -0.109528 -0.059691 -0.066114 -0.141321 0.080587 0.107189 0.222421 -0.163484 -0.084823 -0.086804 -0.142526 -0.130628 -0.034377 -0.107191 0.036840 0.139862 -0.139145 -0.013283 0.003206 -0.194594 -0.135549 -0.102931 -0.114903 0.028023 0.183407 0.154803 -0.007728 0.017483 -0.012463 -0.158318 
from 0.049314 0.119988 0.179442 -0.201145 0.199985 -0.085800 -0.181407 -0.058259 -0.115506 0.021060 -0.086947 0.008447 0.223681 0.037740 -0.131869 0.155538 -0.103138 -0.105673 0.199471 0.276310 -0.061990 -0.080159 -0.013346 -0.270560 -0.019642 0.406621 -0.025560 0.074683 0.072379 -0.123645 -0.252422 -0.081562 0.112719 0.099368 0.009334 -0.027298 0.016516 0.106925 0.062781 0.021782 0.229157 -0.286910 0.084136 0.069711 -0.084410 0.026382 -0.126854 -0.128075 -0.163935 -0.339795 0.050234 0.159704 0.065628 0.094134 0.185981 0.007763 -0.009483 0.084735 0.085975 0.031190 -0.174878 -0.063025 -0.162798 -0.012076 -0.028977 -0.022174 -0.064716 -0.109137 -0.014943 0.098530 0.117703 -0.128524 0.036575 0.108335 0.074748 -0.116260 -0.078762 0.052667 -0.136837 0.044360 -0.087667 -0.209195 -0.079927 0.197250 0.044137 0.062695 0.030608 0.104099 -0.090925 0.005057 0.013669 -0.183435 -0.121021 -0.032685 0.117122 0.086428 -0.250041 0.030417 0.197227 -0.024489 -0.076104 -0.028691 0.105746 0.079465 -0.147484 0.024349 -0.096099 -0.000373 0.120660 0.075965 0.052395 -0.022031 0.005554 0.012166 -0.024979 -0.019773 -0.126694 0.255988 0.148190 0.148689 0.046738 0.215169 -0.203281 -0.003360 -0.029604 -0.024804 -0.138788 0.009652 -0.128434 0.173745 -0.155807 0.037240 -0.111963 0.257530 -0.204098 0.227973 0.163707 -0.061688 0.025114 0.114845 0.063798 0.047896 -0.060140 0.180484 -0.085313 0.089204 0.133148 -0.193902 0.092812 -0.092892 0.042341 -0.152674 0.225867 0.143899 0.125630 -0.088079 -0.000706 -0.191018 0.119044 -0.051724 0.130794 -0.054806 0.237574 0.066876 -0.071331 -0.022680 -0.240873 -0.012394 -0.060043 -0.067760 0.009301 0.058646 0.097229 -0.010258 0.081188 0.134085 -0.036101 -0.068041 0.076664 0.128845 -0.079303 0.109009 -0.084301 -0.038081 -0.064026 -0.106400 -0.254030 0.063876 -0.033216 -0.122905 0.042554 -0.160070 0.001694 0.038774 -0.135739 -0.071341 -0.055327 0.055754 -0.198529 -0.221012 
% 0.074952 -0.007695 0.393571 0.254733 -0.194035 -0.180321 0.041352 0.221983 -0.010805 0.098836 -0.112844 0.173112 -0.051168 0.012594 -0.018304 -0.038943 -0.116944 0.230149 -0.021336 -0.014414 -0.020393 0.094096 -0.286501 -0.065740 -0.076472 -0.076303 -0.078206 -0.121508 -0.216703 -0.002550 0.025834 0.090828 -0.163687 -0.146960 0.051189 -0.147476 -0.109154 -0.216649 -0.064644 -0.249375 0.064393 0.072790 -0.032630 0.171777 -0.238544 -0.054908 -0.220570 -0.043314 0.220356 -0.296266 -0.212054 0.020334 -0.274603 -0.015880 -0.028996 -0.033389 -0.115407 -0.006924 -0.126777 0.277683 -0.369289 0.049521 0.073175 -0.272451 -0.352371 0.112064 -0.129185 0.101001 0.121799 0.167547 0.120512 0.240881 -0.117296 0.080063 0.169493 -0.135843 0.214041 -0.018816 -0.202569 -0.058215 -0.365989 -0.083772 0.046361 0.218788 -0.158426 -0.028879 0.091864 0.130048 0.089188 -0.011829 0.095820 -0.333179 -0.164205 0.159097 -0.064271 0.365221 0.351798 -0.192205 0.036275 -0.001597 0.232330 0.166402 -0.001679 -0.039820 -0.220614 0.085203 0.014576 -0.181419 -0.078207 0.136990 -0.053495 0.048536 0.319602 0.074635 0.107188 -0.086572 0.289114 -0.111959 0.131798 0.404025 0.173153 -0.231812 -0.163001 -0.273083 -0.415616 -0.105297 0.013206 -0.333688 0.097223 0.003591 0.055083 -0.139294 -0.313084 -0.108561 -0.031818 0.340465 -0.168439 0.072538 0.109850 -0.047652 -0.086815 0.453820 0.238403 0.045433 0.103765 -0.266680 0.064607 -0.142304 0.305342 0.078327 0.328115 -0.335256 0.042862 0.175380 0.107545 0.252587 0.115725 -0.120041 0.636070 0.249175 0.040700 0.273448 0.269759 0.263525 0.109340 0.006460 -0.171848 0.135565 0.106950 -0.129196 -0.175033 -0.066138 0.132748 0.017800 0.072718 0.130748 -0.323689 -0.191720 -0.050435 0.119380 0.123084 -0.022925 -0.229661 -0.215477 0.101002 0.117347 -0.109260 -0.228260 0.116201 -0.027529 -0.144673 -0.057208 -0.041661 0.074531 -0.103525 0.082694 -0.133316 0.091059 -0.157515 0.248252 
are 0.037933 0.161006 0.135917 -0.161950 0.133880 -0.018664 -0.038187 -0.036273 0.105214 -0.080444 0.159391 -0.036251 -0.019809 0.002531 -0.145243 0.074878 -0.155355 -0.213183 -0.018806 0.292579 -0.224542 -0.122161 -0.384125 -0.042243 0.235680 -0.024764 0.026352 -0.065263 -0.079101 0.121525 -0.051344 -0.290654 -0.092997 0.375452 -0.008686 0.258562 0.119711 -0.012976 0.009072 -0.043610 0.208014 -0.003512 -0.002121 -0.204982 -0.016836 0.067472 -0.007620 0.013428 -0.127132 -0.257009 0.065291 -0.019803 -0.106966 0.177993 -0.030729 -0.077865 -0.097572 0.130734 -0.086027 -0.048688 -0.172480 0.049446 0.023350 0.069112 -0.061852 0.121350 -0.088235 0.145357 -0.027251 0.004151 -0.071875 -0.150280 0.057106 0.066831 0.190060 -0.077623 0.126373 0.222084 -0.029758 0.058823 0.089248 -0.021190 0.044976 0.091635 -0.209706 0.188204 -0.101466 -0.146365 -0.017292 -0.098052 -0.133309 0.057126 0.072475 -0.014229 0.178145 -0.101026 -0.138813 -0.034629 -0.094005 0.037408 -0.028010 0.167085 -0.014354 0.087457 0.053612 -0.251221 0.271845 0.029868 0.128472 -0.258353 0.003932 -0.081742 0.275444 -0.111326 0.221694 -0.043107 0.002134 -0.150431 0.056855 -0.028651 0.128158 -0.209007 0.084980 -0.043353 -0.060565 -0.016592 0.064976 0.054936 -0.166330 -0.028852 -0.227621 -0.014952 0.106275 0.068443 0.127060 0.167717 0.004064 0.233412 -0.259108 0.147780 -0.010529 0.086609 0.056896 0.397642 -0.012928 -0.273811 0.172289 0.007519 0.057264 -0.003260 -0.185198 -0.185703 0.090259 -0.061312 -0.057155 0.001084 0.221386 0.103657 -0.017303 -0.297409 -0.048909 0.132410 0.056354 0.326878 -0.051602 -0.144623 -0.098733 0.082854 0.222677 -0.029202 0.163629 -0.124413 0.315973 -0.266441 0.027328 -0.002104 -0.148240 -0.105181 -0.132725 -0.082356 -0.218404 -0.074718 0.147015 -0.102644 0.076838 0.263053 0.167667 0.158826 0.081392 0.109754 0.138925 -0.209945 -0.068383 0.243985 0.089968 -0.211258 -0.046980 0.108726 -0.060136 -0.046299 
or 0.138829 0.025066 0.028920 0.007908 0.069866 0.001663 0.011942 -0.110163 -0.031679 0.137387 0.161982 -0.112470 0.175202 -0.099909 -0.238385 -0.059062 -0.179105 -0.215501 -0.009403 0.164757 0.099682 -0.047323 0.055388 -0.125602 0.086136 0.252758 0.049515 -0.146906 0.081688 0.062949 -0.077341 -0.130401 -0.140921 -0.177413 0.064784 0.184277 0.022238 0.014210 -0.108771 -0.042000 -0.081794 0.077158 -0.047858 -0.036406 0.055121 0.110867 -0.207618 -0.191493 0.005669 -0.130503 -0.232042 -0.100668 0.035583 0.030681 -0.018084 0.085039 -0.063778 -0.083476 -0.123512 0.044763 -0.051437 0.044788 0.171251 0.041915 0.016713 -0.000041 -0.115028 -0.096584 0.058582 -0.102832 -0.096537 -0.140383 0.039499 0.093177 -0.020383 -0.079137 -0.114503 -0.047657 -0.061140 -0.053970 0.094145 -0.230480 0.115570 0.076508 0.016196 0.062843 -0.059443 -0.021767 -0.229397 0.044792 -0.079375 -0.220749 -0.058154 0.081951 0.060723 -0.007880 -0.212094 -0.129913 0.140477 -0.018496 -0.011259 -0.089818 0.023378 -0.136237 0.040026 0.017413 0.001591 0.108660 -0.029130 0.026739 -0.020514 0.066116 0.112865 -0.108803 0.080195 -0.040762 0.088857 -0.027799 -0.106908 -0.008622 0.006269 -0.081599 0.107716 -0.136459 -0.088598 -0.177051 -0.169273 -0.186186 -0.140734 -0.009455 0.037559 -0.159413 -0.141620 0.024224 -0.094961 0.202113 -0.000992 0.022250 0.113108 0.228885 -0.031137 0.044466 0.073103 0.198902 -0.095213 -0.030544 0.043691 0.039090 -0.081449 0.131627 0.179555 -0.162468 0.231799 0.157304 0.013562 0.168538 0.098437 0.086496 -0.149276 -0.053980 0.006214 -0.040026 0.135248 0.082891 0.033872 -0.062502 -0.018906 0.044463 0.123722 -0.166729 -0.123300 -0.094429 0.061509 -0.056214 -0.202307 0.048419 -0.039393 -0.116551 -0.048728 0.078106 -0.003307 -0.078302 -0.075147 -0.181288 0.114400 -0.018260 0.066481 -0.041244 0.002577 -0.026865 -0.036478 -0.115067 -0.018719 0.148127 0.099892 -0.025785 -0.117498 0.221263 0.052646 -0.063997 
be 0.016512 -0.030837 0.135033 -0.149770 0.085616 -0.160836 0.005709 -0.079556 0.068056 -0.169399 0.144226 -0.115272 0.097453 -0.022109 -0.021174 0.093524 0.058128 -0.172926 -0.225104 0.029174 0.113082 -0.198495 -0.161980 -0.162213 0.095185 0.043680 0.160786 -0.097186 0.124071 0.117950 -0.122756 -0.233548 0.082889 0.249028 0.230447 0.062550 0.131760 -0.016320 -0.167875 -0.018459 -0.178476 0.172564 -0.010224 -0.201148 -0.067530 -0.342516 -0.026583 -0.164529 -0.090405 -0.674296 -0.183336 0.019751 0.040909 0.109915 0.025697 0.117033 -0.133044 0.256749 -0.201811 0.037859 -0.047362 -0.002988 -0.112899 0.063904 -0.008217 0.127131 -0.141461 0.201918 -0.009901 -0.253835 0.065353 -0.275120 0.100787 0.109584 0.249434 0.022237 0.134561 0.035232 -0.032485 0.072335 0.193015 -0.076056 -0.075811 0.223354 -0.107163 0.032832 0.049048 -0.318371 0.155397 0.289474 -0.097404 0.072677 -0.128597 0.111456 -0.000712 0.141465 0.262470 -0.311554 0.032497 -0.112533 0.223423 -0.034768 0.198515 0.066251 -0.152106 -0.208131 -0.124484 0.286585 -0.063631 -0.175555 0.047507 -0.286489 0.047717 -0.066243 0.159155 -0.062421 0.016684 -0.148574 -0.205955 -0.068117 -0.107551 -0.135315 -0.153291 0.063472 -0.091810 0.043161 -0.118402 0.291933 -0.072561 0.046590 -0.307438 -0.213808 -0.006291 -0.081135 -0.278783 0.070502 -0.110721 0.359000 -0.101581 0.026646 -0.127979 0.014846 0.143791 0.093653 -0.004877 0.055720 0.040840 -0.011163 0.032879 -0.059112 -0.282993 0.171994 0.208340 0.185073 -0.018904 0.171286 0.071753 -0.069161 -0.345800 -0.035888 -0.146817 -0.104212 -0.049762 -0.460093 -0.175785 -0.113269 -0.243309 0.109746 0.269685 -0.090239 0.027765 -0.154822 0.047695 -0.137090 -0.086977 0.186070 -0.068112 -0.206042 -0.110152 -0.047170 -0.049200 0.190123 -0.058176 -0.048959 0.335730 0.142136 -0.034998 0.356706 0.202635 0.204450 0.013093 0.015435 -0.099922 0.034771 -0.146736 0.015901 0.210988 0.248295 -0.077645 0.027123 
at 0.232030 -0.191806 0.141600 -0.053616 -0.029519 0.159915 0.041795 -0.058696 -0.083329 -0.054488 -0.140684 0.236138 0.186972 0.142182 0.019357 -0.178490 0.181582 -0.038766 0.048624 0.108826 -0.132199 -0.160044 0.002260 -0.358398 0.048428 -0.104945 0.210940 -0.130267 -0.055810 -0.299604 0.105331 -0.051090 0.008421 -0.248589 -0.016072 0.298589 -0.146911 0.162154 -0.038120 0.015807 -0.073703 -0.163972 0.206474 0.097318 0.072375 0.004297 -0.023203 -0.087713 0.003276 -0.167790 0.164486 -0.057566 -0.133642 -0.127186 -0.038579 -0.235126 0.132954 0.067083 0.001247 -0.111743 -0.039455 -0.230544 0.210578 -0.029189 -0.036953 0.083545 0.191606 0.059118 -0.130850 -0.047645 0.189908 -0.132115 -0.003780 0.258369 0.166533 0.032175 0.078116 -0.289573 -0.164771 -0.036001 -0.024630 -0.208367 -0.016024 -0.068899 -0.089669 -0.161351 -0.037965 -0.297155 -0.109154 -0.006891 0.059580 -0.222675 -0.087309 -0.092518 -0.003353 0.131537 -0.142284 -0.141443 0.045457 -0.063303 0.209551 -0.056606 0.049251 -0.121938 -0.037804 -0.051557 -0.185703 -0.032476 -0.027244 0.094301 -0.039295 0.118517 -0.082615 -0.045941 0.197263 -0.041553 0.124322 0.150696 0.057016 -0.040633 -0.211015 0.191453 -0.096742 -0.147321 -0.072848 0.057502 -0.241197 -0.041673 0.103733 0.405354 -0.229492 -0.234559 0.247801 -0.043823 -0.090443 0.209273 0.183408 -0.202573 0.008753 -0.124811 0.133226 0.155497 -0.106551 0.200902 -0.214712 -0.216788 0.208813 -0.252076 0.270107 -0.023002 -0.022076 -0.222813 -0.030332 0.177848 0.097617 0.097736 0.190203 0.151202 -0.013951 -0.126787 -0.274227 0.040300 0.397300 -0.106679 0.072054 -0.013728 -0.161955 0.206834 -0.020076 -0.221986 0.209278 -0.080683 0.054494 -0.285835 -0.025000 0.202799 -0.068485 -0.203069 -0.201631 0.083490 0.013524 0.138435 -0.152200 0.165458 -0.015280 0.158180 0.164932 0.095082 -0.056829 -0.142060 -0.237255 0.099698 0.179787 0.247952 0.147813 -0.024669 -0.125616 0.086024 0.171399 -0.257038 
patients -0.403891 0.065983 0.170356 0.195680 -0.046497 -0.124003 -0.051781 -0.044237 -0.020085 -0.003814 -0.204244 0.052913 0.346155 0.176368 0.082905 -0.202491 0.069109 -0.036388 0.041177 0.003908 0.407517 0.070542 -0.278432 -0.075278 0.151712 0.029678 0.028163 -0.216885 -0.024060 -0.083059 0.024936 -0.086358 0.090052 -0.443549 0.041236 0.053355 0.031539 0.157068 -0.129410 -0.000933 -0.034636 -0.032935 -0.216351 0.173628 0.278408 -0.027879 -0.128204 -0.065048 0.075315 -0.242638 -0.010186 -0.070001 -0.067430 0.059734 -0.339949 -0.049901 -0.139283 -0.127993 0.097307 0.067615 -0.008281 0.207721 0.088157 0.214237 0.112875 -0.086551 -0.187413 0.227670 0.172910 0.038454 -0.139222 -0.284020 -0.165995 -0.019441 -0.165002 0.242684 0.407443 -0.078314 0.044454 -0.032315 0.113502 0.130637 0.224417 0.024438 -0.146768 -0.046872 -0.035784 -0.116103 0.096339 -0.060076 0.039331 0.055772 0.008253 0.019259 0.031843 0.169331 0.058682 -0.073362 0.177545 0.035438 0.184514 -0.500087 0.433798 0.097776 0.148749 0.088913 -0.027167 0.015474 -0.196730 -0.122013 0.098024 -0.308667 -0.011607 -0.233100 0.213939 0.005304 -0.021240 -0.067755 0.133348 0.422736 0.085741 -0.123688 0.024123 -0.080421 -0.120073 0.076853 0.070556 -0.105643 0.035329 -0.117679 -0.005064 -0.045062 -0.126151 0.107209 -0.144943 0.279877 -0.041414 0.097324 -0.233439 -0.073380 -0.263451 -0.063107 0.262757 0.354222 0.143544 -0.090807 0.052759 -0.284284 -0.231471 0.308021 0.241414 -0.065168 0.065249 0.006355 0.223927 -0.003090 0.133777 -0.312470 0.069337 -0.063966 0.045653 0.196800 0.044524 0.299635 0.109414 0.067089 -0.061133 -0.097543 0.291644 -0.018413 0.034269 -0.182523 0.066573 0.001922 -0.141908 -0.061028 0.022785 0.134756 0.038037 -0.065805 -0.048543 -0.137381 -0.458110 0.128666 0.152189 0.128091 -0.205464 0.068288 -0.160356 -0.024266 -0.116292 -0.125483 0.096721 0.065874 -0.376062 -0.037613 0.107927 0.259597 0.139797 -0.143636 
an -0.165316 -0.009931 0.199884 -0.058900 -0.149660 0.067882 0.154147 0.036907 -0.186128 -0.143340 0.075122 -0.398332 0.094559 0.023843 -0.169447 0.020979 -0.031717 0.087194 0.150973 -0.110084 0.065141 -0.025866 -0.067034 0.073486 0.063009 0.001325 -0.199023 -0.241112 0.137705 -0.016103 0.087402 -0.092735 0.146661 -0.037047 0.242886 0.130967 0.035909 -0.004832 -0.149542 -0.046240 -0.044668 0.144272 -0.071387 0.012978 0.220245 -0.252474 0.094359 -0.431063 0.001988 -0.178047 0.124623 0.015346 0.076005 -0.040503 0.086601 0.021898 0.081546 -0.166882 -0.136337 -0.050613 -0.006258 0.098123 0.256324 -0.072016 -0.253603 0.051517 0.019109 0.073868 -0.090185 -0.083517 0.027073 -0.347883 -0.073246 -0.100360 0.069447 0.049508 -0.026355 0.174606 -0.075841 -0.049886 0.066501 -0.141312 0.028796 0.178182 0.011285 0.178968 -0.154768 -0.257322 -0.206398 -0.020073 -0.149949 0.032080 -0.029960 -0.012246 0.078687 -0.063419 -0.008448 -0.177896 0.229621 -0.232226 -0.115730 -0.058806 -0.260761 -0.134198 -0.185342 0.006672 0.001848 0.279661 0.052490 0.038373 -0.054193 -0.130946 0.168054 0.114410 0.276191 0.039218 -0.173954 0.063637 0.129022 -0.168724 -0.114424 0.141507 0.045584 -0.470953 0.083430 0.059671 0.070789 0.023304 -0.164414 0.381377 0.152065 -0.003433 -0.154428 -0.022026 -0.196758 -0.043648 -0.035839 0.066884 0.017573 -0.163113 -0.059423 0.070883 0.020622 -0.185836 0.008376 -0.070935 0.005966 -0.181020 -0.049821 0.073092 0.006668 -0.162440 -0.095659 -0.154136 0.209134 0.135401 0.057504 0.091451 0.155978 -0.152819 -0.028737 -0.183059 0.022166 -0.060352 0.056055 0.133120 -0.101827 -0.021781 -0.138864 -0.147726 -0.057296 0.100063 -0.105447 0.010871 0.084643 -0.090074 0.117530 -0.192762 0.219936 0.136970 -0.129011 0.065734 -0.073072 -0.031189 0.268388 -0.085400 0.122942 -0.067826 0.037653 -0.188686 0.015719 -0.048620 0.001702 0.113406 0.170016 -0.194948 0.326529 0.541520 -0.039084 -0.012353 
not 0.008729 -0.053185 -0.078213 -0.100573 0.099239 -0.078409 -0.197142 -0.109376 0.269533 -0.053531 0.050970 0.115862 -0.033219 0.061018 -0.131954 -0.228792 0.039871 0.047704 0.005177 0.188405 0.001127 -0.211575 -0.004461 -0.417325 -0.166221 0.163612 -0.126703 -0.166144 -0.013348 -0.222372 -0.001883 -0.159520 -0.172727 0.151259 0.293601 0.219463 0.169842 0.107351 -0.533883 -0.174179 -0.027603 -0.213375 0.106588 -0.253799 0.340502 -0.043686 -0.027336 -0.251611 0.152501 -0.256383 -0.217662 0.007391 0.006771 0.141585 -0.139193 0.220199 -0.140987 0.239227 -0.057361 -0.097205 -0.196823 -0.045563 -0.105146 0.038596 0.092367 0.023790 -0.010792 0.017400 0.112320 0.116011 0.050915 -0.023939 0.152847 -0.047009 0.287407 -0.148911 0.192983 -0.052349 -0.077335 0.109840 0.158354 0.034764 0.023967 0.027613 -0.183924 -0.057520 -0.017759 0.012845 0.085325 -0.311366 0.139250 -0.076574 -0.073782 0.011344 0.226648 0.217391 -0.195438 -0.027688 0.130845 0.054906 -0.020492 -0.057196 -0.113483 -0.126872 -0.035961 -0.273763 -0.216792 0.213822 -0.028928 0.077582 -0.164316 0.100726 -0.045973 0.168938 0.084503 0.167600 0.046000 0.099690 0.018296 -0.071935 0.232255 -0.196252 -0.132214 0.049931 -0.020259 0.119596 -0.039914 0.030164 -0.195846 -0.127892 0.011234 -0.145283 -0.068279 0.122033 -0.057602 0.218110 -0.290143 0.293947 -0.135741 -0.080149 -0.119963 0.037816 -0.046861 -0.242004 -0.171723 0.150740 0.254796 -0.208049 0.018402 0.198609 -0.001871 0.078382 0.178327 0.229024 0.111489 0.064600 0.092897 0.074537 -0.125594 0.027021 -0.004624 -0.001609 -0.101657 0.050972 0.164104 -0.100501 -0.226918 0.187273 0.527917 -0.144513 -0.103884 -0.239991 -0.071480 -0.086238 0.089106 -0.124513 0.026126 -0.091684 -0.067251 0.334593 -0.105574 0.144700 0.126203 -0.380945 0.051211 -0.044715 0.009815 0.238450 -0.161303 -0.210083 0.020996 -0.031135 -0.008725 -0.146860 -0.099543 0.075078 0.131984 0.424616 0.087947 -0.306429 
cells 0.006524 -0.150325 0.295709 0.005126 0.221912 0.126820 0.027205 0.179843 -0.006022 -0.109217 0.022034 0.066127 0.415415 0.131946 -0.190789 -0.037778 -0.201177 -0.383744 0.000776 0.128588 -0.091519 -0.171238 -0.083477 -0.035647 -0.001097 -0.144388 -0.189323 -0.084027 0.163291 -0.071746 0.183698 0.091287 -0.055088 -0.275571 -0.017520 -0.216973 0.468767 0.081814 -0.102558 -0.050799 0.096571 -0.086657 0.080105 0.263765 0.268426 -0.054004 -0.290052 -0.229876 -0.403447 -0.058258 -0.284713 0.136136 -0.054266 0.125287 -0.190379 0.315170 0.223897 0.249900 -0.196356 0.127232 -0.046984 -0.018255 -0.163127 0.228215 0.000457 -0.031702 0.145831 0.065948 0.118546 -0.131719 -0.392449 -0.147249 0.090917 0.180376 0.351508 0.096086 -0.223605 -0.128599 -0.142157 -0.011441 0.168979 -0.131899 0.114304 -0.010956 -0.036804 0.162756 0.062577 -0.010521 -0.087515 0.040625 -0.059039 0.274644 0.008105 0.010548 0.137814 0.055674 -0.142467 0.150009 0.305850 0.276588 -0.043913 0.012233 -0.177959 0.096347 0.068348 -0.091412 -0.184007 0.021830 -0.273177 0.069181 -0.145844 -0.026066 0.372349 0.288601 -0.090576 -0.229221 -0.047902 -0.022585 0.013819 0.046930 0.040737 0.132031 -0.181773 0.006885 -0.152613 0.318039 0.285920 -0.203799 -0.338732 0.054713 0.179083 0.110025 -0.034775 -0.028999 0.017658 -0.039898 -0.201353 -0.176795 -0.124773 0.154908 0.113486 0.032406 -0.147968 0.208716 -0.096802 -0.251660 -0.224306 0.105614 -0.223872 0.178599 0.098844 -0.125550 0.094428 0.123749 0.094604 -0.152809 -0.312901 -0.099139 0.202669 0.104927 0.011617 -0.268417 0.058925 0.119645 0.132564 -0.365450 -0.066551 0.053743 0.233762 -0.132506 -0.205556 -0.160297 -0.040977 -0.100525 -0.173524 0.403697 -0.224987 -0.484183 0.100028 0.078341 0.041513 -0.245203 -0.312470 -0.136156 0.120079 0.271240 -0.188594 -0.257632 0.111591 0.153118 -0.489807 -0.078969 0.097445 0.397166 0.035618 0.188787 -0.339296 0.354184 0.274690 -0.113156 
; 0.194036 0.183168 0.078513 0.111649 -0.129347 -0.099374 0.044681 0.153719 -0.144161 -0.019355 0.083682 -0.305724 -0.102599 0.173091 -0.028569 0.030926 -0.024259 0.127117 0.204588 -0.164965 0.035989 0.097364 -0.017023 -0.179474 -0.063777 -0.031892 0.133030 -0.056848 0.105552 0.179025 0.089759 -0.029729 -0.121802 -0.022504 -0.072509 -0.046589 -0.040831 0.259248 -0.072085 0.090024 0.120169 -0.031338 0.053462 0.156672 -0.082441 0.176947 0.023646 -0.039963 0.042378 -0.060068 -0.167452 -0.134124 0.064469 0.253638 0.122442 -0.130153 -0.034395 0.097920 -0.086771 -0.029318 0.101836 -0.119210 -0.082432 0.078787 -0.145513 -0.092221 0.258961 -0.106176 -0.257595 0.284041 0.128010 -0.181550 0.081620 -0.036786 0.083845 -0.082714 -0.071048 -0.220098 -0.070759 0.093182 -0.075907 -0.311834 -0.089021 -0.326542 -0.175392 -0.116833 -0.170096 0.088035 -0.053478 0.089882 -0.148267 0.041277 0.172261 -0.024333 -0.039040 0.004082 -0.296964 -0.241352 0.052809 0.009542 0.051959 0.042311 0.010696 0.036847 -0.174846 -0.014583 -0.104542 -0.095500 0.126256 0.011732 -0.163432 0.104105 -0.089330 0.124656 -0.193861 0.136662 0.029380 -0.168062 0.020830 0.176076 0.197981 -0.146728 0.185703 -0.213504 -0.245194 -0.105861 -0.227383 -0.060779 -0.227600 0.035079 -0.134395 -0.194870 0.014693 -0.066079 0.057956 0.157301 -0.092774 0.042640 0.302217 -0.075279 -0.211115 0.128697 -0.066984 0.126858 0.062579 -0.179121 0.155391 0.033485 -0.055669 -0.058538 0.003501 -0.155756 0.253693 0.145505 -0.050742 0.085249 -0.011745 0.027706 -0.110575 -0.005442 0.323758 0.110022 0.105238 0.159246 -0.006630 0.137058 -0.054417 0.202797 -0.162261 0.045651 -0.225236 0.013018 0.029085 0.078965 -0.202982 0.011168 0.015161 0.116553 -0.131396 -0.240582 0.000865 -0.021019 -0.309934 -0.279402 0.244954 -0.038633 0.109931 -0.273244 0.095794 0.168505 -0.105769 -0.167825 0.078846 0.162650 -0.154597 0.136202 -0.052997 0.039216 0.028532 -0.029999 
this -0.190705 -0.175628 0.108436 -0.108906 0.007074 0.026044 -0.190051 -0.037019 0.038964 -0.314105 -0.216750 -0.198309 -0.097625 -0.185933 -0.038497 -0.065974 0.048790 -0.037588 -0.092836 0.081215 -0.269428 -0.159063 0.158817 -0.155925 -0.016445 0.088369 -0.125557 -0.146896 0.075812 0.083244 -0.014489 -0.166053 0.051308 0.052866 0.300547 0.037192 0.110138 0.067893 -0.100959 -0.145375 -0.101401 0.058123 0.072696 -0.235656 0.198836 -0.316815 -0.173170 -0.086851 0.184702 -0.140546 0.139888 0.031309 0.059232 0.065034 -0.064689 -0.041724 0.033740 0.138125 -0.041476 -0.058974 0.116327 -0.106986 -0.132023 0.060251 0.028595 -0.111294 -0.042259 0.175064 0.087203 -0.084150 0.081329 -0.120131 -0.054733 -0.004618 0.026380 -0.011908 0.265205 0.047759 0.163954 -0.073231 -0.092708 -0.239382 -0.115254 -0.088949 -0.093151 -0.106384 -0.010443 -0.034149 -0.050369 0.256410 -0.077086 0.021501 -0.125093 -0.059529 0.151675 0.046210 0.219411 -0.001593 0.128443 -0.278035 0.167155 -0.277332 -0.299254 0.247918 0.101363 -0.094018 0.046916 0.072757 0.229630 0.169832 0.097412 0.033575 -0.142149 0.107364 0.049962 -0.045492 0.000154 0.077566 0.124899 -0.013761 0.031805 0.055792 -0.076916 -0.028565 0.046534 0.143070 0.075043 0.100285 0.100205 0.100896 0.138589 -0.301677 -0.119626 -0.035567 -0.225371 0.131240 0.015248 0.125695 -0.255589 -0.116737 -0.064758 0.265608 -0.142862 0.291882 -0.174486 0.239124 -0.065113 -0.356945 -0.007866 0.042041 -0.032334 0.056402 0.247599 0.021366 -0.060599 -0.228264 0.172651 0.012147 -0.055260 -0.047573 -0.031509 -0.278634 -0.272102 0.012212 0.038548 0.058868 -0.182705 -0.215779 0.073596 -0.133547 -0.153746 -0.219215 -0.121082 -0.078443 0.082438 -0.043343 0.045582 -0.056191 0.135555 0.048244 0.078573 -0.000160 0.011407 -0.088894 0.123863 -0.071191 0.300810 -0.238517 0.013730 -0.046716 -0.026341 -0.152126 -0.062638 0.122760 -0.018763 -0.091398 0.181741 0.315170 0.057146 0.053611 
In 0.156107 -0.119008 0.293294 -0.243146 0.086337 -0.044856 -0.168081 -0.131567 -0.051783 0.076151 0.027024 -0.390813 -0.162748 -0.392255 -0.021999 -0.371946 0.030787 -0.176811 0.000704 0.464386 0.113105 0.064142 0.030893 -0.216115 -0.442118 0.154538 -0.202743 -0.133426 0.044979 0.334256 -0.103746 0.032428 0.066734 0.086419 0.110798 -0.136945 0.127070 0.367684 0.187034 -0.136717 -0.322582 -0.119228 -0.396996 0.276289 -0.167542 -0.362036 -0.448003 -0.098139 0.284751 -0.445859 0.253084 -0.005771 -0.195832 -0.120576 -0.164598 -0.050750 -0.090024 -0.015491 -0.001378 0.016704 0.078978 -0.239925 -0.122395 -0.033554 -0.028704 -0.113581 0.159796 -0.256636 -0.129268 0.375598 -0.115883 0.033587 0.111369 0.357609 0.221328 -0.104021 0.124965 -0.259583 -0.222247 -0.033710 -0.006634 -0.243026 -0.110220 -0.003546 -0.203984 0.348007 -0.281333 0.360462 -0.434433 -0.107405 -0.111926 -0.281725 -0.071994 -0.135763 0.170801 0.347557 -0.000723 -0.020206 0.180285 -0.220527 -0.092372 -0.195368 -0.358063 -0.036466 0.119644 -0.179076 -0.081294 0.367192 0.086259 0.054604 -0.105118 -0.085375 0.059379 -0.177053 0.119058 -0.081907 -0.387278 -0.235650 0.014496 -0.236304 0.037005 -0.166386 -0.005289 0.054139 -0.146778 -0.403945 0.151940 0.200335 0.041696 0.193720 0.076925 0.167467 -0.248280 -0.018660 0.242587 -0.086169 -0.177607 0.213487 0.023972 -0.327245 -0.440306 0.152898 -0.051607 0.313123 0.068657 -0.029360 -0.271029 -0.457947 -0.000321 -0.456733 0.137728 -0.145720 0.015159 -0.038116 -0.053445 0.047337 -0.155205 0.173361 0.136421 -0.317057 0.149552 -0.137339 -0.178384 0.327848 -0.087936 -0.129406 0.011413 -0.410338 0.012962 -0.191846 -0.030599 -0.154508 -0.065015 0.134661 -0.139854 -0.244824 -0.461536 -0.001007 0.111243 0.011871 0.139425 -0.122591 -0.264037 -0.110079 0.047579 -0.158115 -0.359738 0.285741 0.031279 -0.094936 -0.101625 -0.269554 -0.324656 0.220953 -0.100702 0.368062 -0.227767 -0.062936 0.128897 -0.254122 
: 0.024975 0.075197 0.189567 0.107962 -0.030038 0.000071 -0.032029 -0.057367 -0.007546 0.072038 0.185449 -0.207372 0.048599 0.054468 0.145793 -0.104654 -0.080478 0.316548 0.046571 -0.018944 0.091692 0.047520 0.143221 -0.045629 0.110362 0.015535 0.162291 -0.007371 0.130044 -0.019238 0.118057 -0.219810 0.038788 0.066733 -0.083879 -0.052695 -0.037805 0.032816 -0.079541 0.114571 0.090282 0.003213 0.147870 -0.030346 -0.069389 -0.079977 0.071543 0.044897 -0.081904 -0.128300 -0.105502 0.054926 0.050656 0.147168 -0.010436 -0.167605 -0.141825 0.132829 -0.131291 -0.061475 0.017924 -0.213690 -0.108053 0.233975 0.055666 -0.020882 -0.049396 -0.251536 -0.302630 0.156856 0.208667 0.024549 -0.123125 0.101154 0.165669 0.066878 -0.020242 -0.056889 -0.114604 0.104535 0.000166 -0.224004 -0.094416 -0.034441 -0.195410 0.002332 -0.256999 0.174427 -0.146315 -0.010982 -0.069962 0.020004 0.187760 0.059841 -0.085988 -0.155287 -0.297495 -0.089309 -0.131429 -0.011853 0.262558 0.111299 -0.038925 -0.184897 -0.004471 -0.140091 -0.062510 -0.127361 0.103332 0.020139 0.021907 0.019963 0.046404 0.015039 -0.134525 -0.000625 -0.173716 -0.098520 0.046992 0.278669 0.133334 -0.117448 0.009193 -0.156765 0.031115 -0.050425 -0.005900 -0.008874 -0.035170 0.050884 0.024453 -0.243616 -0.148685 0.094300 -0.174431 -0.084076 0.116623 0.001454 0.148005 0.045487 -0.110205 0.226175 0.146124 0.291668 -0.078939 -0.213375 -0.213251 0.049703 -0.045256 0.045563 -0.219133 -0.005424 0.178402 -0.037067 -0.196524 -0.114862 -0.046244 -0.036068 -0.115104 0.182396 0.253680 0.153318 0.236392 0.089461 0.141343 0.411563 -0.154250 0.125405 0.044967 0.118619 -0.255770 -0.051244 -0.105566 -0.168619 0.031859 0.038764 0.016898 0.063746 -0.085526 -0.144971 -0.053499 -0.022287 -0.218866 -0.172089 0.215791 -0.119229 0.155158 -0.294577 0.018160 0.033889 0.023581 -0.068746 0.005270 0.113604 -0.062863 -0.104615 -0.112610 -0.019028 0.032763 -0.114922 
have 0.168066 -0.188009 0.170280 -0.089217 0.202843 -0.067246 0.079731 -0.027264 0.002139 -0.022610 0.074988 -0.049748 -0.079706 -0.031867 0.127420 0.083829 -0.106670 -0.238340 -0.088569 0.164590 0.088122 -0.245791 -0.289359 -0.357488 0.259681 -0.022131 0.225168 -0.124717 0.030463 0.108252 0.014551 0.125072 -0.228495 0.292703 0.178980 0.035477 0.064617 0.165837 -0.350693 -0.227401 -0.137059 0.082855 0.099281 -0.043880 0.131944 0.092977 0.005197 0.157561 0.043144 -0.320408 0.052306 0.362133 -0.085942 0.065494 -0.005824 0.155914 -0.101012 0.375728 -0.068274 0.047466 0.037148 0.014966 0.069073 0.047460 0.063698 0.046890 0.047835 0.218125 -0.039597 0.040823 -0.062902 0.125849 -0.093892 -0.144256 -0.032221 -0.012119 -0.013920 0.141127 0.160952 0.175388 0.163471 -0.012525 -0.352775 0.116945 -0.204574 0.191545 -0.023970 0.167339 0.140464 0.103409 -0.114731 -0.048217 -0.071918 0.137135 0.016697 -0.066288 -0.042552 -0.148280 -0.214257 -0.056205 0.049858 -0.166817 0.136839 0.258688 -0.044912 -0.241187 0.120275 -0.033646 -0.048972 -0.026528 0.354617 -0.314729 0.087846 -0.041092 0.157738 -0.127538 -0.049616 0.000238 0.069258 -0.028135 0.210085 0.081837 0.159465 0.017469 -0.132961 -0.005708 -0.063738 -0.183436 -0.059256 0.172603 -0.025586 -0.060304 0.144737 0.066189 -0.044600 0.243018 -0.285635 0.043257 0.226649 -0.089349 -0.024239 -0.174116 0.129277 0.027862 -0.258447 0.100380 0.053397 0.148725 -0.007482 0.220371 -0.051884 -0.112882 0.157995 -0.033880 0.187307 0.031541 0.113261 0.041565 -0.004793 -0.278444 0.112241 -0.175810 -0.112077 0.184950 -0.103454 -0.068955 -0.021438 -0.170303 0.208911 -0.201331 0.189570 0.119705 0.137787 -0.391670 -0.100567 -0.161413 -0.246869 -0.275869 -0.301777 -0.000795 -0.096694 0.135296 -0.037192 -0.001802 0.207862 0.036041 -0.114521 0.287234 0.065335 -0.079310 0.077968 -0.166680 -0.270391 0.140075 0.060998 -0.180764 0.208631 0.251549 -0.322507 -0.398369 
which 0.131650 -0.081844 0.242837 -0.086077 0.077786 0.066494 -0.044204 -0.261619 0.117357 -0.020594 -0.031609 -0.073579 0.063362 -0.145514 -0.140165 -0.005391 0.105379 -0.027692 -0.077407 0.136701 -0.003277 0.041943 0.018786 -0.175035 0.033974 0.128650 -0.022990 -0.083000 0.108521 0.056685 0.115261 -0.049489 -0.131209 -0.055773 0.141230 0.044780 -0.033162 0.041517 -0.051950 -0.167029 0.005204 0.097183 0.106838 0.070043 0.063013 0.006274 -0.175833 -0.170587 -0.064517 -0.179173 -0.048002 -0.066761 -0.023536 0.078166 -0.015433 0.053614 0.158214 0.077625 -0.068399 -0.063195 0.000303 -0.023985 0.055643 -0.169688 -0.026445 -0.006412 -0.029674 0.014511 0.046586 -0.097701 -0.117299 -0.191938 -0.026804 0.058523 0.044106 -0.010322 -0.030700 0.032934 0.022345 -0.063559 -0.026644 -0.244264 -0.104438 0.031524 -0.143120 -0.032579 -0.139306 -0.109393 -0.100735 0.008285 -0.052127 -0.064281 0.016818 -0.026915 0.045858 0.025667 0.043757 -0.158614 0.039781 -0.112649 0.007375 -0.100656 -0.052651 0.065616 0.047253 -0.122147 0.052175 0.174102 0.153412 0.032282 -0.061792 0.056191 0.049588 0.093908 0.008626 -0.043214 -0.022980 -0.006958 -0.049052 -0.108848 0.150116 -0.072767 -0.021440 0.018218 -0.018427 0.008025 -0.154384 0.059350 0.128847 0.021825 0.115367 -0.060246 -0.088166 0.151409 -0.024751 0.085020 0.048993 0.085276 -0.143749 0.088152 -0.203349 0.049788 0.004511 0.051795 -0.112334 0.229475 0.039678 -0.063688 0.043489 0.003092 0.047674 -0.016264 0.040797 0.147122 -0.060418 0.186993 0.110481 0.073903 -0.029453 -0.035869 0.134971 0.017487 -0.048680 0.024374 -0.052470 -0.059030 -0.251103 -0.011332 0.099547 -0.045377 -0.143369 0.028611 0.097792 -0.137936 -0.115966 0.043688 -0.038018 -0.090002 0.138193 -0.128870 -0.006379 0.144972 -0.008615 -0.165776 0.220551 0.088906 -0.061373 -0.029698 0.037130 -0.123772 0.019573 -0.027331 -0.089221 0.098938 0.072394 0.035364 -0.074508 0.370266 0.077146 -0.033805 
study 0.112715 0.070783 -0.062588 0.054018 0.105897 0.013490 -0.026796 -0.139668 0.055639 -0.309779 0.109192 -0.214002 0.030440 -0.085322 0.101454 0.100337 0.109114 -0.031435 0.122888 -0.047312 -0.197697 0.084128 -0.079953 -0.109250 -0.273490 0.080986 0.070451 -0.185322 -0.033570 -0.238841 -0.001517 0.030406 0.226898 -0.112004 0.181097 -0.089789 -0.029088 0.314038 -0.338125 0.147932 -0.108638 0.015982 0.080850 0.098960 0.121358 -0.191483 -0.182592 0.002460 0.276173 -0.470030 0.022764 0.080304 0.170741 -0.081908 0.042478 0.059488 -0.111051 0.042839 0.023282 0.044720 0.264937 -0.273691 0.043611 0.039634 -0.107646 0.015365 -0.028683 -0.023735 0.167926 0.085264 -0.410780 -0.183587 -0.249271 -0.081792 -0.131528 -0.171131 0.224610 -0.102149 0.048949 -0.044918 0.168036 -0.098240 -0.205713 -0.222745 -0.067915 -0.094324 -0.204560 -0.129406 0.259274 0.097033 0.054787 -0.037357 -0.261201 -0.203641 0.162205 0.205707 0.408363 0.144619 0.152219 0.132277 -0.097616 -0.269277 -0.046020 0.050345 -0.100637 0.105710 -0.091043 -0.160606 -0.088661 0.178884 0.293977 -0.095455 -0.152242 0.217378 -0.194449 -0.052686 0.017974 -0.206629 -0.090374 0.144948 0.365591 -0.119554 -0.042209 -0.204894 0.202828 0.105354 -0.097339 -0.105867 0.150202 0.005464 0.162391 -0.013687 -0.221858 0.363103 -0.132793 0.220013 -0.143171 0.234230 0.039432 -0.356151 -0.133117 0.131116 -0.242409 0.309522 -0.248768 -0.190594 -0.164960 -0.291195 0.282710 -0.000564 -0.177825 0.124787 0.108921 -0.043313 0.006357 0.069729 0.259887 -0.081148 -0.166823 -0.358076 -0.202637 -0.081540 0.003265 0.610911 -0.486995 -0.135118 0.037167 -0.044242 -0.091859 0.012032 0.085286 -0.264978 -0.055189 -0.113124 -0.087958 0.058393 -0.177850 -0.045600 0.092743 -0.267461 -0.116128 -0.045085 -0.302425 -0.036167 0.030413 -0.008785 0.087526 0.229104 -0.159483 -0.149537 -0.047228 -0.333260 -0.003917 -0.200373 -0.064070 0.019388 -0.147623 0.168566 -0.156002 -0.160945 
between 0.011990 -0.153838 0.131692 -0.122640 0.172125 -0.105903 -0.055160 -0.050374 -0.019068 0.083608 0.275921 -0.023264 0.310496 0.072855 -0.074830 -0.114977 -0.177077 -0.088874 0.196803 0.040717 0.017384 -0.044003 0.113316 -0.262542 -0.051232 0.047110 0.171520 -0.172917 0.127725 -0.212216 0.002391 -0.265707 0.120821 0.015594 0.244953 0.093233 0.180399 0.183394 -0.090982 -0.091388 0.056025 0.180004 0.272172 0.349005 -0.089725 0.033408 -0.370127 -0.022803 -0.214901 -0.035373 0.123761 0.076323 -0.156133 0.068733 0.128676 0.039128 -0.164134 -0.096213 -0.312638 0.013289 -0.117018 0.170528 -0.199795 0.125487 -0.014508 0.165230 0.008618 0.092482 0.136544 0.079647 0.192708 -0.177184 0.180903 0.165451 0.255452 0.189389 0.135476 -0.045558 -0.205694 0.034358 0.051334 -0.234352 -0.038829 -0.061527 -0.072825 0.002814 -0.106841 0.128927 0.448470 0.238248 0.068984 -0.231581 -0.227147 -0.079444 0.074252 -0.183114 -0.232206 0.167047 0.072424 -0.186413 0.009486 -0.082295 -0.189609 0.175786 0.038754 -0.093019 0.019689 0.200870 0.105784 -0.103291 0.143799 -0.023690 0.126521 -0.123022 0.032502 -0.132644 0.067403 0.235250 0.161638 -0.227036 0.100125 0.069481 -0.134922 0.009868 0.229125 -0.015329 -0.082443 -0.039138 -0.111228 -0.149104 -0.116897 -0.360037 -0.130278 -0.056314 0.031387 -0.024743 -0.031073 -0.089408 0.063052 0.001498 -0.115127 0.048612 0.103285 0.149688 -0.202952 0.184468 0.086392 -0.182253 0.056005 -0.232521 0.257330 -0.115142 -0.238003 0.111666 0.047003 0.015243 0.149025 0.047064 0.058040 0.109328 -0.055146 0.014084 0.275488 0.316357 -0.186341 0.210149 -0.007317 0.224910 0.063052 0.165772 0.076392 0.018870 0.247256 0.023576 0.108772 -0.108768 0.047397 -0.344657 -0.275297 0.291550 -0.056739 0.219591 -0.117276 0.123820 -0.049743 0.101396 0.182318 -0.020691 -0.195285 -0.331031 -0.146651 -0.190905 -0.045902 0.065537 -0.365433 -0.079228 -0.520860 0.275510 -0.203905 -0.081773 
A -0.189883 -0.202481 -0.005225 -0.064607 0.167389 -0.037635 -0.167760 -0.086328 -0.109631 0.125560 -0.344614 -0.259667 0.116254 0.044681 0.120374 -0.022421 0.033372 -0.217021 0.135235 0.233191 0.312573 -0.207069 0.291687 0.271378 0.108451 0.017180 0.041070 -0.098336 0.007361 0.108179 0.290627 -0.125165 0.179806 0.352312 0.102162 0.173288 0.157982 0.134672 0.091245 -0.085242 0.081950 -0.064304 0.020415 0.410815 -0.157623 0.299257 -0.341422 -0.092592 0.032678 0.008420 -0.163634 0.038658 -0.196734 0.215375 0.031879 0.169021 -0.259210 0.079262 0.000720 -0.151985 0.136691 -0.058624 -0.104289 -0.237370 -0.132866 0.016061 0.145722 -0.138376 0.200379 -0.069195 -0.016758 0.268769 0.136797 -0.007795 0.236286 -0.080928 -0.134537 0.065362 -0.045732 -0.147606 -0.263049 0.054123 -0.164438 -0.054955 -0.014501 -0.223881 -0.178374 0.136563 -0.226238 0.109071 -0.010590 -0.129284 0.107206 -0.009537 0.083595 0.192475 0.101511 0.017766 0.253273 0.080026 0.211974 -0.141013 0.124023 -0.172486 -0.074407 -0.241402 -0.012101 0.108362 0.201517 0.076826 0.008094 -0.169603 -0.028346 -0.012920 -0.096762 0.063229 0.038542 0.019954 -0.203026 -0.161667 -0.059667 0.025302 -0.114969 0.038905 0.042253 -0.210641 0.121858 -0.032219 0.064094 0.267643 0.201086 -0.075655 0.050718 -0.054390 -0.159548 0.098533 0.098122 0.170502 -0.083831 -0.031551 0.042384 0.321631 0.125672 0.242690 -0.323098 -0.056652 0.182044 0.045898 -0.029157 0.043133 0.189560 0.078205 0.137852 0.039084 -0.007099 -0.125936 -0.042973 -0.027293 0.018549 0.081618 -0.140877 0.004757 0.133365 0.155184 0.125424 0.013910 -0.183121 -0.030991 -0.210539 0.037772 -0.178040 -0.171288 -0.298767 0.141970 -0.039122 0.045052 -0.116865 -0.096174 -0.056606 -0.094759 -0.078160 -0.024505 0.065855 -0.280296 0.067977 -0.040842 0.197644 -0.095148 -0.068213 -0.124638 -0.232527 -0.185239 -0.185621 0.141837 0.022175 0.220993 0.011393 0.154005 0.033737 0.250044 
than -0.059823 0.012248 0.068704 0.172843 0.013547 -0.263135 -0.031025 0.008665 0.080075 -0.075107 0.119247 -0.373403 0.049490 -0.225550 -0.060363 -0.094856 0.258824 -0.034975 0.016208 0.412088 -0.159607 -0.079442 -0.132327 -0.079112 0.151972 0.345086 -0.115636 0.001551 0.116460 0.050851 -0.043880 0.158315 -0.157973 -0.145396 0.171343 0.401561 0.202863 -0.103023 -0.370146 -0.291980 -0.178318 0.083028 0.458799 0.034431 0.033223 -0.042600 -0.227648 -0.157511 -0.028352 -0.146388 -0.150306 0.198389 0.032415 0.184298 -0.177194 0.169965 0.226602 0.053358 0.051536 -0.014199 -0.435581 -0.295594 0.066744 -0.013611 0.192659 -0.067577 -0.155912 -0.217241 0.084535 0.184666 0.086915 -0.178272 -0.027744 0.066258 -0.096455 -0.067511 0.248098 0.046344 -0.253753 -0.070122 -0.003007 -0.138109 0.120705 0.012566 0.259425 0.171848 -0.356956 0.105991 -0.264051 0.159798 -0.016760 -0.460210 -0.221415 0.185005 0.218702 0.003713 -0.158612 -0.175396 0.281785 -0.020693 -0.048324 -0.212614 0.240494 0.156514 0.182957 -0.253081 -0.161529 0.159627 -0.277742 0.061471 0.090399 -0.078110 0.162615 -0.100744 -0.045220 -0.019891 0.136560 -0.105827 -0.291293 -0.051223 0.108755 0.165993 -0.002510 -0.117190 -0.206559 0.094138 -0.090849 -0.324633 0.108790 0.199745 0.009246 0.082002 -0.162365 -0.180200 -0.239760 0.211003 0.136728 -0.008093 -0.137578 0.301409 0.057319 -0.002639 0.186443 0.216920 0.011715 -0.063730 -0.033691 -0.151027 0.001086 -0.060937 0.342607 -0.322334 -0.108261 0.082983 -0.048077 0.364829 0.243560 -0.306209 -0.117402 -0.005604 0.054898 -0.025994 0.399938 0.379551 0.002239 -0.151294 -0.094326 0.138658 -0.045319 0.185622 0.229373 -0.033758 0.023217 -0.176174 -0.164237 0.187481 0.044263 -0.089672 -0.374276 0.176091 -0.301430 0.041027 -0.030667 -0.298308 0.022392 0.217955 -0.016544 -0.049730 -0.054265 0.166306 0.169627 -0.130261 0.124136 0.029033 0.120662 0.016419 0.000174 0.161040 0.061426 0.000255 
= 0.035275 0.058382 0.271231 0.276536 0.014717 -0.203811 0.165999 0.155355 0.148160 0.103716 0.312335 -0.205596 0.116317 0.323537 -0.101219 -0.071038 0.036205 0.158672 0.070183 0.089764 0.118943 -0.122803 -0.143339 -0.243022 0.438581 -0.059326 0.309847 -0.334468 0.060285 0.049165 0.315901 0.122737 0.421282 -0.062099 0.093281 0.257958 -0.032032 -0.029318 -0.383331 0.002194 0.061336 -0.182432 -0.127710 -0.044935 0.136428 0.244868 -0.169069 -0.138301 -0.031765 -0.216491 0.028941 0.036761 -0.005048 -0.162723 0.043231 -0.440389 0.104886 -0.204472 -0.492623 -0.078993 0.111616 0.162045 -0.191216 0.045504 -0.064277 -0.113905 -0.262850 0.037609 -0.167078 0.437635 0.136886 -0.145221 -0.177282 -0.103153 0.231981 0.125830 0.080474 -0.455263 -0.057117 0.235694 -0.316507 -0.063933 -0.323509 -0.202849 -0.047862 -0.230003 -0.122413 0.309138 -0.344417 0.178759 -0.070898 -0.182730 -0.068549 0.222499 0.064068 0.392572 -0.203100 -0.163029 0.125130 0.059252 0.246380 0.097773 0.025775 0.026713 -0.274678 -0.168302 -0.024748 -0.209680 0.035427 0.193029 -0.557804 0.077000 0.237398 -0.172982 -0.330051 -0.216884 0.176303 -0.279605 0.075478 0.179968 -0.052568 -0.089112 0.105304 -0.068901 0.097559 -0.253686 -0.133374 -0.033916 -0.254947 -0.078038 0.043752 -0.401705 -0.275853 0.250802 0.014075 -0.125706 -0.080514 -0.055544 -0.215700 0.088812 0.154865 0.276485 0.088751 0.251439 -0.145956 -0.209438 0.270319 0.204819 0.129430 0.283369 -0.001209 -0.321329 0.321219 0.231471 -0.141091 0.120533 -0.266901 -0.089296 0.159229 0.544158 0.136401 0.173768 -0.137051 0.036350 0.163945 -0.008052 0.163251 0.401228 -0.081556 0.077456 0.038911 -0.030205 -0.146501 0.045315 0.265958 0.220739 0.241025 0.028041 0.120632 -0.350709 -0.147898 -0.077833 -0.407861 -0.194310 0.053776 0.128937 0.111090 -0.255361 -0.098754 -0.287884 -0.189930 -0.111994 -0.185437 0.173894 -0.097130 0.140209 -0.045668 -0.137620 -0.367844 0.050394 
these -0.101157 0.073906 0.035722 0.024378 0.135943 -0.192934 0.076190 -0.108497 0.070291 -0.014123 0.084371 0.199398 -0.095776 -0.217602 0.002155 -0.092753 -0.119183 -0.245212 0.013268 0.112049 -0.262454 -0.012447 -0.202279 -0.157716 -0.022151 0.060531 0.044311 -0.071965 0.022186 0.113940 -0.029797 -0.115855 -0.080808 0.048351 0.074724 0.092682 -0.019324 -0.002584 -0.086421 -0.084793 -0.131290 0.079201 0.125361 -0.071012 0.150401 -0.154056 -0.089566 -0.162779 -0.107498 -0.269465 -0.013873 -0.069624 -0.082162 0.197905 0.037884 -0.141640 0.010834 0.246265 -0.004203 0.082681 -0.101807 -0.064989 -0.014183 0.088754 0.124655 -0.094187 -0.068029 0.091342 0.131259 -0.070083 0.145693 -0.044981 0.131084 -0.171920 0.020849 -0.004187 0.076312 0.043667 0.062689 0.108102 0.006324 -0.242001 -0.015007 0.081460 -0.137185 0.029132 0.038117 -0.058816 0.150485 -0.110241 0.048228 -0.216254 -0.021742 -0.244610 0.098522 -0.133539 -0.086885 0.095299 -0.196162 0.016028 0.157981 -0.058283 -0.090782 0.167559 0.200292 -0.219992 0.241939 0.027731 0.242047 -0.078092 0.073747 -0.110957 0.034896 0.143483 -0.102386 -0.235767 0.026643 0.060221 -0.024442 -0.055351 0.183426 0.065689 -0.005911 -0.032754 0.003989 0.195733 0.146727 0.038060 0.017303 -0.332618 -0.138821 -0.173761 -0.116726 0.043630 0.102334 0.013983 0.066510 -0.091147 -0.077543 0.091068 -0.048767 0.155362 0.096727 0.386095 -0.134606 0.209365 0.072920 -0.257305 0.070801 0.041281 0.050473 -0.019765 0.272165 -0.041028 -0.032534 0.236163 0.199617 0.121284 -0.081608 -0.171263 -0.068316 0.136981 -0.195163 0.170048 -0.172461 -0.151621 -0.168865 -0.022184 0.308787 -0.131359 0.038760 -0.070236 0.077086 -0.170890 0.051221 -0.086480 -0.097111 -0.167889 0.286016 -0.023600 -0.086283 -0.198867 0.129050 0.106236 0.275374 -0.018813 -0.058626 -0.089542 -0.078484 -0.072847 0.062941 0.044151 -0.007082 0.095503 -0.032889 -0.218811 -0.127600 0.370951 -0.271838 -0.113902 
1 0.145101 -0.242963 0.105904 0.110732 0.018169 0.213783 -0.090982 -0.157221 0.180465 0.345127 0.033787 -0.313955 -0.051973 0.057792 0.238401 0.102109 -0.238342 -0.085645 -0.118485 0.251755 0.180107 0.207799 0.145687 -0.224388 0.080643 0.069858 0.025594 -0.012142 0.377411 -0.026870 0.088430 -0.020036 0.152997 -0.050578 -0.025977 0.041662 -0.139525 0.223687 0.021996 0.040840 0.122286 -0.091249 0.125320 -0.066791 -0.080579 0.059347 0.111000 0.056499 0.163138 -0.099611 -0.152506 0.020285 -0.113819 0.170542 -0.209156 -0.392200 0.130099 -0.096025 -0.012838 0.203759 0.064974 -0.082949 0.038215 0.088454 -0.110299 0.177194 0.270753 0.256515 0.121239 -0.139504 -0.034291 0.068651 -0.025978 0.091413 0.324599 -0.030316 -0.091348 0.007691 -0.238373 -0.108875 -0.163234 -0.183720 0.057033 0.028840 -0.029818 0.079089 -0.288336 0.109966 -0.213934 0.057323 0.173259 0.031854 -0.100513 -0.015518 0.049081 0.092012 -0.095102 -0.020982 0.123469 -0.139558 0.044181 0.010674 0.130052 -0.014229 0.056907 0.001581 -0.110248 -0.118023 0.227080 -0.290445 -0.145098 -0.116628 -0.039362 0.079163 -0.191673 0.146393 0.128287 0.066132 0.028414 0.071516 -0.045795 -0.009185 -0.110095 -0.113671 0.186584 0.041072 -0.118182 -0.004753 -0.066808 0.146354 0.103730 -0.218192 -0.131045 -0.197239 0.092689 0.387308 -0.155870 0.145767 -0.304587 0.014801 -0.176226 0.291042 0.101956 0.052251 0.137017 -0.176835 0.156261 -0.170220 0.203466 0.203870 0.114628 -0.236473 0.297009 -0.056348 -0.213156 -0.055404 0.075318 -0.166181 0.175505 -0.028234 -0.084451 0.020981 0.057669 0.101111 0.167964 0.186975 -0.100741 0.249056 0.107049 -0.114502 -0.158442 -0.029421 -0.149061 -0.030945 -0.087472 0.156327 -0.288858 -0.015147 -0.081486 -0.239531 0.141935 0.333058 -0.150668 -0.221162 0.028709 0.058207 0.243170 -0.106389 -0.036265 0.207126 -0.101561 0.100836 0.078339 0.369883 0.238156 -0.082549 -0.140055 -0.064648 -0.207560 0.005862 
been -0.169587 -0.121935 0.189451 -0.304261 0.071683 -0.029724 -0.222626 -0.063171 -0.097672 -0.074660 0.042580 -0.121979 -0.047627 0.142555 0.021013 0.276439 0.230247 -0.124706 -0.139234 0.321992 0.173947 -0.202826 -0.096896 -0.058954 -0.063030 -0.132824 0.214992 0.007039 -0.055647 0.103947 0.297792 -0.042690 0.011627 -0.082531 -0.042352 -0.223353 0.340475 0.146868 -0.511949 -0.144660 -0.448883 0.116650 -0.160400 -0.330167 0.049837 -0.215501 -0.056466 -0.081145 0.257797 -0.269705 0.106150 -0.215627 -0.370453 0.194194 -0.160478 0.180614 -0.097411 -0.440670 0.029486 -0.113799 -0.113270 -0.006548 -0.033239 0.062138 -0.097848 -0.128087 -0.104222 0.107141 0.011899 -0.110695 -0.308675 -0.147769 0.041841 -0.276811 0.154172 -0.353265 0.093290 0.066932 0.110563 0.351577 0.170894 0.235137 -0.147659 0.060342 -0.016935 -0.105299 -0.133498 -0.023721 0.131697 0.067963 -0.185955 0.161588 -0.221591 0.140131 -0.123722 -0.140177 0.057384 -0.142750 0.007160 -0.006255 0.090272 0.113654 -0.001447 -0.009267 0.096194 0.091511 0.037103 0.174500 0.227948 -0.553239 0.160072 -0.102215 0.351655 0.108840 0.407169 0.109944 -0.175216 -0.176364 0.164804 -0.177677 0.236078 -0.226269 -0.064466 -0.068299 -0.078694 0.223450 -0.089113 0.170917 -0.205771 0.141470 -0.067033 -0.072864 -0.061281 -0.001880 -0.144869 0.390067 0.017098 0.142473 -0.006102 0.137015 0.099901 -0.283131 -0.266637 -0.028067 -0.471143 0.067047 0.080296 0.071597 0.356773 0.321438 -0.215548 0.283908 0.320076 -0.235954 0.331368 0.241211 0.109159 0.170565 0.032649 -0.073030 0.039779 -0.211344 0.024039 0.210792 0.094862 0.170599 -0.066347 -0.223725 0.122579 -0.119893 -0.078168 0.132428 0.340184 -0.155175 -0.083366 0.216597 -0.358833 0.097520 -0.156754 -0.106683 -0.197804 0.411855 -0.065878 -0.127370 -0.094321 0.187509 -0.262426 0.392453 0.153649 -0.024963 -0.153363 -0.069194 -0.170306 0.373476 0.232577 0.077779 0.302759 0.129085 -0.479899 0.013739 
we -0.010723 -0.134225 0.214013 -0.041201 -0.014987 -0.121941 -0.065086 0.076078 -0.042523 -0.183068 -0.055690 -0.086243 -0.052196 -0.380534 0.193928 -0.188894 0.025537 -0.284672 0.132894 -0.100587 -0.219751 -0.167056 0.028795 -0.363321 -0.080605 -0.010870 -0.142978 -0.050739 0.273264 -0.069045 0.012689 -0.112576 0.034323 0.075142 0.200871 0.009672 0.240026 0.265975 -0.344668 -0.099091 -0.341274 -0.028674 -0.169261 -0.138989 0.014556 -0.455887 0.163384 -0.272675 0.098401 -0.423036 0.004042 0.198741 -0.240483 0.149712 -0.029538 -0.265899 -0.204550 0.312682 0.087379 -0.123469 -0.216331 -0.109171 -0.016848 0.086067 0.186322 -0.125594 -0.246087 0.123703 0.127291 -0.011950 -0.027957 -0.255705 -0.050595 0.050362 0.201606 -0.069256 0.200251 -0.035870 0.243771 -0.165399 0.100623 -0.303878 -0.127131 0.051155 0.033911 -0.022146 -0.169237 0.100471 -0.199669 -0.110752 -0.155075 0.066786 -0.246807 -0.190881 0.186225 -0.014996 0.021497 0.250521 0.059395 -0.142967 0.185736 -0.334433 -0.221793 -0.036400 -0.018244 -0.229818 -0.057876 0.078173 -0.205129 -0.033825 -0.121125 -0.055222 0.039595 0.029177 0.152055 -0.036395 0.085122 -0.161259 0.123896 -0.226981 0.105691 0.110886 -0.345667 -0.245406 0.185622 0.057418 -0.267474 -0.129227 0.414034 -0.130188 0.000597 -0.180987 -0.362088 -0.053306 -0.107742 0.074679 -0.106513 0.180623 0.181961 0.013705 0.215447 0.098906 -0.088907 0.337193 -0.204484 0.352992 0.121569 -0.200657 -0.002605 0.133997 -0.168003 0.112312 0.221043 -0.082427 0.037919 0.097377 0.089883 0.209992 -0.062239 0.107744 -0.080435 -0.119149 -0.238013 -0.079020 -0.021239 -0.094610 0.038496 -0.195215 0.226941 0.016292 -0.094705 -0.263727 -0.143080 0.044774 -0.074357 -0.012079 -0.232054 -0.298446 0.131600 0.104810 0.050518 -0.303725 0.109603 -0.149254 -0.068452 0.262548 -0.034436 0.129837 -0.061578 0.039446 -0.183240 -0.359999 -0.126054 0.280228 -0.155796 0.259998 -0.160784 0.108539 -0.191257 -0.049534 
using 0.052482 0.110809 0.141422 -0.039194 0.004155 -0.327429 -0.056516 0.061870 0.076974 -0.282131 0.087374 -0.008901 0.061330 -0.070960 0.076740 0.054651 0.011309 -0.047337 0.288896 0.173190 0.064267 -0.014138 0.326605 -0.313244 0.002247 0.075471 -0.052730 0.007552 0.093619 0.068067 0.033059 -0.249185 0.078489 0.072132 -0.054740 -0.217375 -0.023065 -0.083723 -0.361325 0.105571 -0.042181 0.113293 -0.070983 0.126234 -0.166458 0.013424 -0.103532 -0.415092 0.006344 -0.138519 -0.139599 0.428147 0.138897 -0.030236 0.190173 0.083294 -0.036538 0.114107 -0.057672 -0.107079 0.007936 0.007159 -0.022028 -0.058028 -0.042414 0.029865 0.046763 0.007844 -0.144590 -0.040764 -0.001608 -0.057397 0.082619 -0.071812 0.109269 -0.005344 -0.074079 -0.190790 -0.257631 -0.189467 -0.023201 -0.121925 -0.067691 0.053382 -0.008731 0.034975 -0.068178 -0.158552 0.078659 0.005369 -0.109130 -0.111858 -0.173145 -0.145166 -0.048436 -0.116495 -0.115869 -0.081981 0.015247 0.096853 0.115849 -0.062938 0.254559 -0.136213 -0.231944 -0.027237 0.001427 0.041774 -0.059317 0.016685 -0.115452 0.128503 -0.107510 -0.005784 0.062561 -0.089234 -0.036185 -0.073147 -0.149314 -0.101959 0.112098 0.066600 -0.107016 -0.108957 0.263696 -0.138323 -0.321962 -0.242782 -0.098340 0.420908 -0.175439 -0.091574 0.113469 0.116507 0.094275 0.025502 -0.065601 -0.033960 0.047803 0.119004 0.071735 0.049675 0.193298 0.046803 -0.181880 0.112121 0.316579 -0.133237 -0.112480 0.037125 0.299972 0.116873 0.061434 -0.049237 0.018310 -0.102521 -0.102119 -0.092406 0.103455 0.053689 -0.032278 -0.152021 0.159674 -0.157280 0.136031 0.173169 -0.277451 -0.102580 0.001602 -0.172722 0.031836 -0.161448 0.064786 0.108072 0.035565 0.040465 -0.039891 0.049062 -0.069459 -0.004129 -0.107472 -0.226719 0.431029 0.039882 -0.013123 -0.058782 -0.149246 0.162659 0.076526 0.002921 0.075481 -0.458841 -0.019245 0.236964 0.235591 -0.109828 -0.258174 -0.116750 -0.038954 0.095661 
after -0.010949 -0.070485 0.078837 -0.235779 -0.005535 0.237572 -0.023395 -0.009325 -0.068406 -0.075701 -0.061544 -0.060914 0.048502 0.062637 -0.033641 -0.205355 -0.116043 0.034482 0.110813 -0.015001 0.095365 0.092194 -0.067628 -0.182449 0.014274 0.193282 0.204299 0.223260 -0.033913 -0.076689 0.129088 -0.257990 0.037609 -0.326287 -0.189058 0.075296 -0.026330 0.167333 -0.089028 0.179878 0.057535 -0.164894 0.119472 -0.001219 0.114651 0.039395 -0.265356 -0.047106 0.013317 -0.259888 0.091506 -0.155488 -0.118657 -0.232190 -0.011455 -0.041132 -0.171266 -0.195613 -0.049666 -0.062781 0.046538 0.109706 0.016506 -0.070663 0.093801 -0.118260 0.185424 -0.204096 0.094656 -0.018687 0.191513 -0.015161 0.105911 -0.043780 0.031238 0.124328 -0.026780 0.100463 -0.326893 -0.164543 0.073915 0.092307 0.093204 0.063833 -0.000100 0.175573 0.050976 0.017503 0.048249 -0.127972 -0.078069 -0.113770 -0.072202 -0.012097 0.099412 0.303109 -0.019702 0.044348 0.303935 -0.260699 0.051817 -0.156686 0.243470 -0.174142 -0.041158 0.044057 0.123668 0.082754 0.073673 0.224138 -0.111618 -0.051302 0.141929 0.141338 0.009315 -0.124951 0.322082 -0.155225 -0.007281 0.252950 -0.140431 0.281637 -0.013685 -0.165604 -0.090101 0.260106 -0.273535 -0.224190 -0.011674 0.059481 -0.241393 -0.047907 -0.078940 -0.067807 0.074831 0.067299 -0.275862 -0.054103 -0.138316 0.294781 0.001226 0.121971 -0.234271 0.015635 -0.331412 -0.106508 -0.125241 -0.201618 0.033156 0.068062 0.097892 -0.267328 0.189902 0.010688 0.008311 0.292373 -0.057042 0.160369 -0.092587 -0.193469 0.053367 -0.325161 0.248926 0.025097 0.154314 -0.009813 0.160704 0.079609 0.078874 -0.220710 0.101440 -0.212565 -0.117891 -0.215767 -0.115072 0.057321 0.238464 -0.447132 -0.166585 0.261711 0.056833 0.009480 -0.029192 -0.042324 0.191478 0.022271 -0.054770 0.171181 -0.136687 -0.133181 -0.007078 -0.083977 -0.121460 0.423908 -0.127340 0.235119 -0.066349 0.121493 0.051288 -0.000349 
cell 0.055340 -0.063751 0.080878 -0.067017 0.089339 0.011706 0.042641 -0.148759 -0.165619 -0.207024 0.081616 -0.035504 0.209515 0.063925 -0.021566 -0.101396 -0.040979 -0.267917 0.023125 0.001258 -0.017457 -0.070943 -0.022550 -0.111017 0.124967 0.010027 -0.177118 -0.011184 0.103861 -0.073292 0.097413 -0.140551 -0.315863 0.081094 -0.452546 -0.326179 0.308370 -0.240715 -0.085830 -0.343303 -0.066225 -0.152172 0.191256 0.200254 0.280097 -0.070484 -0.213693 0.006344 -0.170618 0.185350 -0.262907 0.004143 -0.219968 0.082107 -0.245555 0.216594 0.253384 0.273676 -0.020005 0.009489 0.084133 -0.086310 -0.208648 0.131077 0.262083 -0.079820 0.152376 -0.049144 -0.045693 -0.157412 -0.368334 -0.222124 -0.298157 0.044174 0.544353 -0.056137 -0.191930 0.096857 -0.158284 -0.058128 0.105143 -0.155031 -0.185749 -0.089167 -0.302625 0.274654 0.019348 -0.109169 0.079194 -0.043012 -0.005649 0.039492 0.134394 -0.041014 0.055550 -0.040329 -0.334888 0.123383 0.299188 0.075089 -0.076075 -0.055705 -0.183656 0.080564 0.014160 -0.130076 -0.025984 0.252172 -0.222910 -0.095944 -0.347271 -0.054808 0.135507 -0.183987 -0.156268 -0.138011 0.322044 0.006519 0.214728 -0.162964 0.172176 -0.020801 -0.051123 -0.080068 -0.317632 0.323255 0.241878 -0.006200 -0.402019 -0.147250 0.133090 -0.046349 0.084879 0.074888 -0.277681 -0.214055 -0.082655 -0.299575 -0.259135 0.062166 0.089422 0.211540 -0.111574 -0.035695 -0.097333 -0.264412 -0.239563 -0.034475 -0.117562 0.259937 -0.015765 -0.031945 0.007839 0.149586 0.167325 -0.115867 -0.367719 -0.335082 0.071372 -0.047866 0.124783 -0.316392 -0.002758 0.023790 -0.096221 -0.011553 -0.270245 0.155137 0.166312 -0.248293 -0.047207 -0.247351 -0.135535 0.162973 -0.262872 0.316857 -0.298539 -0.514951 0.317007 -0.162338 0.183520 0.044679 -0.135539 0.070262 0.157986 0.029981 -0.160830 -0.183155 0.105617 0.124663 -0.338709 -0.316482 0.164403 0.266399 -0.040279 -0.107475 -0.310286 0.295489 0.174563 -0.196750 
has 0.160072 -0.263912 0.123487 -0.035068 0.015997 -0.143049 -0.026933 -0.022276 -0.086671 -0.029944 0.008416 -0.084478 -0.114785 0.057667 0.093214 0.214419 0.106802 -0.197086 0.028712 -0.018062 0.100255 -0.217730 0.014355 -0.074947 0.115139 -0.095495 0.149783 0.055437 -0.007342 0.162108 -0.018550 -0.061478 -0.286758 0.106767 0.261077 -0.097347 0.268999 0.000646 -0.314415 -0.073485 -0.071920 0.075832 0.047866 -0.121038 0.315913 0.207348 -0.176472 -0.019204 0.178794 -0.269271 0.021932 0.198004 0.028598 -0.024010 -0.036225 0.272703 -0.076923 0.143799 -0.210008 -0.073573 0.242033 0.149223 -0.025847 -0.013625 -0.023120 0.011353 0.044370 0.374718 -0.176241 0.076924 0.069386 0.178299 -0.114760 0.076850 0.110949 -0.059155 0.067657 0.061555 0.187647 0.103857 0.189932 0.142775 -0.299245 0.058813 -0.138007 -0.016577 -0.134370 0.115310 0.162029 0.071203 -0.287913 -0.129693 0.046582 -0.061071 0.120263 0.026125 -0.049324 -0.050731 0.001718 -0.093399 0.077682 -0.075449 -0.136280 0.204939 -0.094000 0.002121 0.115019 0.199039 -0.017839 -0.092060 0.385786 -0.115189 0.033783 -0.124484 0.210294 0.046260 -0.075430 0.015236 0.235914 -0.201325 0.136744 0.250000 0.123606 -0.017405 -0.093819 -0.208685 -0.005725 -0.307609 -0.136321 0.235094 0.127336 -0.122152 0.126684 -0.042197 -0.201368 0.363197 -0.209964 0.080977 0.108756 0.128610 0.073566 -0.202219 0.196686 -0.102945 -0.359194 0.089656 -0.157600 0.077045 0.268944 0.284134 -0.302520 -0.105175 0.041756 -0.199080 0.116848 -0.110748 -0.058016 0.087646 0.104460 0.079122 0.260397 -0.377515 -0.003925 0.314006 0.227457 0.216490 0.232843 -0.449276 0.111928 -0.250395 0.066454 0.080482 0.033548 -0.323808 -0.146026 -0.020901 -0.082307 -0.199932 -0.412829 -0.103220 -0.090250 0.219915 -0.272978 0.051784 0.085331 0.234972 -0.114682 0.489123 -0.150323 -0.114372 0.078921 -0.231640 -0.232406 0.001700 0.273053 -0.157890 0.464107 0.314206 -0.370381 -0.280651 
also -0.009832 -0.038605 0.276604 -0.042458 0.059302 0.023000 -0.050486 -0.102721 0.055949 -0.103922 0.039190 0.000093 0.028226 -0.034587 0.053515 -0.056384 0.033611 -0.105142 -0.158628 0.131161 -0.033929 -0.211939 -0.004058 -0.255754 0.041036 -0.018799 0.090261 -0.046998 0.113881 -0.003351 -0.000745 -0.093838 0.059444 -0.092918 0.135061 -0.087578 0.028945 0.052230 -0.358768 -0.172546 -0.041456 0.069442 0.236320 -0.059359 0.104928 -0.073478 -0.090289 -0.156524 -0.054754 -0.276581 -0.106786 0.047792 0.029593 0.075545 -0.057309 0.127352 -0.064160 0.077745 -0.012430 -0.068305 -0.001907 -0.111190 -0.078417 0.064770 0.033947 0.029642 0.100201 0.166557 0.106541 -0.039394 0.022063 -0.084652 -0.042935 -0.012539 0.117295 -0.035343 0.101835 0.095372 -0.015185 0.170618 0.068609 -0.119873 -0.001966 0.121416 -0.052158 0.081683 -0.034075 -0.152294 0.104027 -0.029317 0.019320 0.089716 -0.091899 -0.148121 0.044666 0.019173 -0.003628 -0.063045 0.091080 -0.020727 -0.043858 0.010330 0.044195 0.063054 -0.052764 -0.204019 -0.097669 0.221014 0.052989 0.005342 -0.036045 -0.002626 -0.028070 0.064163 -0.050152 -0.086882 -0.039750 0.115604 0.013927 -0.048883 0.190179 -0.082650 -0.144790 0.049695 0.125523 0.091015 0.004007 0.173432 0.021736 -0.017357 0.073906 0.028795 -0.068466 0.043653 0.016880 0.150379 -0.121065 0.158876 -0.043036 -0.083093 -0.168686 -0.086580 -0.030380 0.020895 -0.159753 0.085981 0.070059 -0.123074 0.208238 0.267809 -0.002700 0.109456 0.151474 0.080886 0.107588 0.052509 0.079104 0.045650 0.078218 -0.091824 0.122653 -0.017599 0.045070 0.097590 0.013479 0.085943 -0.170489 0.101376 0.202324 -0.096440 -0.092719 0.146547 -0.161763 -0.395479 0.023744 -0.152777 -0.131171 -0.109581 0.016297 0.060371 -0.145208 0.217236 -0.010737 -0.093749 0.210501 0.100871 -0.108806 0.112091 -0.009663 -0.102897 -0.028091 -0.031258 -0.024596 0.080043 -0.111864 0.149564 0.211319 0.353105 -0.016444 -0.152318 
used -0.028624 0.198656 0.243518 0.109836 0.001265 -0.261056 0.022741 0.024854 0.022020 -0.090065 0.081972 -0.153069 -0.013789 -0.224281 -0.159468 -0.137600 0.000280 -0.267018 0.054394 0.013872 -0.000393 0.014230 0.244497 -0.174840 -0.198349 0.111778 0.002072 0.031186 -0.042525 0.297253 -0.032193 -0.113379 -0.139148 0.057880 0.064915 -0.092390 -0.078630 0.159209 -0.283216 -0.043895 -0.043048 -0.046952 0.024952 0.127278 -0.041533 -0.087996 -0.139626 -0.050117 -0.094861 -0.256446 0.072201 0.202941 -0.000312 -0.249487 -0.011028 0.086360 -0.176368 0.264858 -0.074228 -0.327063 0.166855 -0.020290 -0.140890 -0.016805 0.176401 0.009458 0.124061 -0.335085 -0.126875 -0.086275 0.022398 0.016791 -0.186769 -0.182329 0.030781 0.111037 0.016585 -0.137400 -0.070102 -0.210643 0.145872 0.016347 0.024749 -0.188401 -0.276883 0.161678 0.066446 0.111947 -0.085550 -0.031020 -0.133728 0.033437 -0.082430 -0.054003 -0.005638 -0.236150 -0.273250 -0.122660 -0.027958 0.100041 0.003376 0.101507 0.076328 -0.173605 0.002834 0.044298 -0.259930 0.162955 0.146063 -0.087372 0.042570 0.287984 -0.176680 0.143296 -0.139179 0.023088 -0.351879 -0.311153 0.007075 0.036261 0.100835 0.147253 -0.338230 -0.244722 0.131935 -0.179682 -0.181814 0.015002 -0.348065 0.205955 0.088465 -0.271222 0.097040 -0.076567 0.118676 0.122697 -0.042111 -0.115029 0.140422 0.032253 -0.131132 0.246290 0.249219 -0.022325 -0.193235 -0.022796 0.049577 -0.336717 0.058788 0.095377 0.198882 0.255639 -0.011654 0.012875 0.139001 0.110993 0.241362 -0.130586 -0.096808 0.020019 0.178335 -0.015789 -0.087094 0.138837 0.013156 -0.041214 -0.257141 -0.077720 -0.019132 -0.260849 -0.226312 -0.152527 0.124350 0.129640 0.232563 0.005743 -0.160441 0.088370 -0.068157 0.053350 -0.139184 0.155003 0.143922 -0.124266 0.039759 -0.127975 0.142539 0.166507 0.238186 -0.125315 0.048475 -0.080357 0.168289 0.357294 0.106828 -0.253426 -0.169372 -0.063411 0.168654 -0.023122 
